{"learner":{"attributes":{"scikit_learn":"{\"_estimator_type\": \"regressor\"}"},"feature_names":["caco3_flow_rate_kmol/hr","calciner_temp_DegC","pellet_moisture_frac","air_mol_flow_rate_kmol/hr","RH_air","DAC_column_height_m","pellet_diameter_mm","DAC_ambient_temp_DegC","e_voidage"],"feature_types":["float","float","float","float","float","float","float","float","float"],"gradient_booster":{"model":{"cats":{"enc":[],"feature_segments":[],"sorted_idx":[]},"gbtree_model_param":{"num_parallel_tree":"1","num_trees":"1600"},"iteration_indptr":[0,1,2,3,4,5,6,7,8,9,10,11,12,13,14,15,16,17,18,19,20,21,22,23,24,25,26,27,28,29,30,31,32,33,34,35,36,37,38,39,40,41,42,43,44,45,46,47,48,49,50,51,52,53,54,55,56,57,58,59,60,61,62,63,64,65,66,67,68,69,70,71,72,73,74,75,76,77,78,79,80,81,82,83,84,85,86,87,88,89,90,91,92,93,94,95,96,97,98,99,100,101,102,103,104,105,106,107,108,109,110,111,112,113,114,115,116,117,118,119,120,121,122,123,124,125,126,127,128,129,130,131,132,133,134,135,136,137,138,139,140,141,142,143,144,145,146,147,148,149,150,151,152,153,154,155,156,157,158,159,160,161,162,163,164,165,166,167,168,169,170,171,172,173,174,175,176,177,178,179,180,181,182,183,184,185,186,187,188,189,190,191,192,193,194,195,196,197,198,199,200,201,202,203,204,205,206,207,208,209,210,211,212,213,214,215,216,217,218,219,220,221,222,223,224,225,226,227,228,229,230,231,232,233,234,235,236,237,238,239,240,241,242,243,244,245,246,247,248,249,250,251,252,253,254,255,256,257,258,259,260,261,262,263,264,265,266,267,268,269,270,271,272,273,274,275,276,277,278,279,280,281,282,283,284,285,286,287,288,289,290,291,292,293,294,295,296,297,298,299,300,301,302,303,304,305,306,307,308,309,310,311,312,313,314,315,316,317,318,319,320,321,322,323,324,325,326,327,328,329,330,331,332,333,334,335,336,337,338,339,340,341,342,343,344,345,346,347,348,349,350,351,352,353,354,355,356,357,358,359,360,361,362,363,364,365,366,367,368,369,370,371,372,373,374,375,376,377,378,379,380,381,382,383,384,385,386,387,388,389,390,391,392,393,394,395,396,397,398,399,400,401,402,403,404,405,406,407,408,409,410,411,412,413,414,415,416,417,418,419,420,421,422,423,424,425,426,427,428,429,430,431,432,433,434,435,436,437,438,439,440,441,442,443,444,445,446,447,448,449,450,451,452,453,454,455,456,457,458,459,460,461,462,463,464,465,466,467,468,469,470,471,472,473,474,475,476,477,478,479,480,481,482,483,484,485,486,487,488,489,490,491,492,493,494,495,496,497,498,499,500,501,502,503,504,505,506,507,508,509,510,511,512,513,514,515,516,517,518,519,520,521,522,523,524,525,526,527,528,529,530,531,532,533,534,535,536,537,538,539,540,541,542,543,544,545,546,547,548,549,550,551,552,553,554,555,556,557,558,559,560,561,562,563,564,565,566,567,568,569,570,571,572,573,574,575,576,577,578,579,580,581,582,583,584,585,586,587,588,589,590,591,592,593,594,595,596,597,598,599,600,601,602,603,604,605,606,607,608,609,610,611,612,613,614,615,616,617,618,619,620,621,622,623,624,625,626,627,628,629,630,631,632,633,634,635,636,637,638,639,640,641,642,643,644,645,646,647,648,649,650,651,652,653,654,655,656,657,658,659,660,661,662,663,664,665,666,667,668,669,670,671,672,673,674,675,676,677,678,679,680,681,682,683,684,685,686,687,688,689,690,691,692,693,694,695,696,697,698,699,700,701,702,703,704,705,706,707,708,709,710,711,712,713,714,715,716,717,718,719,720,721,722,723,724,725,726,727,728,729,730,731,732,733,734,735,736,737,738,739,740,741,742,743,744,745,746,747,748,749,750,751,752,753,754,755,756,757,758,759,760,761,762,763,764,765,766,767,768,769,770,771,772,773,774,775,776,777,778,779,780,781,782,783,784,785,786,787,788,789,790,791,792,793,794,795,796,797,798,799,800,801,802,803,804,805,806,807,808,809,810,811,812,813,814,815,816,817,818,819,820,821,822,823,824,825,826,827,828,829,830,831,832,833,834,835,836,837,838,839,840,841,842,843,844,845,846,847,848,849,850,851,852,853,854,855,856,857,858,859,860,861,862,863,864,865,866,867,868,869,870,871,872,873,874,875,876,877,878,879,880,881,882,883,884,885,886,887,888,889,890,891,892,893,894,895,896,897,898,899,900,901,902,903,904,905,906,907,908,909,910,911,912,913,914,915,916,917,918,919,920,921,922,923,924,925,926,927,928,929,930,931,932,933,934,935,936,937,938,939,940,941,942,943,944,945,946,947,948,949,950,951,952,953,954,955,956,957,958,959,960,961,962,963,964,965,966,967,968,969,970,971,972,973,974,975,976,977,978,979,980,981,982,983,984,985,986,987,988,989,990,991,992,993,994,995,996,997,998,999,1000,1001,1002,1003,1004,1005,1006,1007,1008,1009,1010,1011,1012,1013,1014,1015,1016,1017,1018,1019,1020,1021,1022,1023,1024,1025,1026,1027,1028,1029,1030,1031,1032,1033,1034,1035,1036,1037,1038,1039,1040,1041,1042,1043,1044,1045,1046,1047,1048,1049,1050,1051,1052,1053,1054,1055,1056,1057,1058,1059,1060,1061,1062,1063,1064,1065,1066,1067,1068,1069,1070,1071,1072,1073,1074,1075,1076,1077,1078,1079,1080,1081,1082,1083,1084,1085,1086,1087,1088,1089,1090,1091,1092,1093,1094,1095,1096,1097,1098,1099,1100,1101,1102,1103,1104,1105,1106,1107,1108,1109,1110,1111,1112,1113,1114,1115,1116,1117,1118,1119,1120,1121,1122,1123,1124,1125,1126,1127,1128,1129,1130,1131,1132,1133,1134,1135,1136,1137,1138,1139,1140,1141,1142,1143,1144,1145,1146,1147,1148,1149,1150,1151,1152,1153,1154,1155,1156,1157,1158,1159,1160,1161,1162,1163,1164,1165,1166,1167,1168,1169,1170,1171,1172,1173,1174,1175,1176,1177,1178,1179,1180,1181,1182,1183,1184,1185,1186,1187,1188,1189,1190,1191,1192,1193,1194,1195,1196,1197,1198,1199,1200,1201,1202,1203,1204,1205,1206,1207,1208,1209,1210,1211,1212,1213,1214,1215,1216,1217,1218,1219,1220,1221,1222,1223,1224,1225,1226,1227,1228,1229,1230,1231,1232,1233,1234,1235,1236,1237,1238,1239,1240,1241,1242,1243,1244,1245,1246,1247,1248,1249,1250,1251,1252,1253,1254,1255,1256,1257,1258,1259,1260,1261,1262,1263,1264,1265,1266,1267,1268,1269,1270,1271,1272,1273,1274,1275,1276,1277,1278,1279,1280,1281,1282,1283,1284,1285,1286,1287,1288,1289,1290,1291,1292,1293,1294,1295,1296,1297,1298,1299,1300,1301,1302,1303,1304,1305,1306,1307,1308,1309,1310,1311,1312,1313,1314,1315,1316,1317,1318,1319,1320,1321,1322,1323,1324,1325,1326,1327,1328,1329,1330,1331,1332,1333,1334,1335,1336,1337,1338,1339,1340,1341,1342,1343,1344,1345,1346,1347,1348,1349,1350,1351,1352,1353,1354,1355,1356,1357,1358,1359,1360,1361,1362,1363,1364,1365,1366,1367,1368,1369,1370,1371,1372,1373,1374,1375,1376,1377,1378,1379,1380,1381,1382,1383,1384,1385,1386,1387,1388,1389,1390,1391,1392,1393,1394,1395,1396,1397,1398,1399,1400,1401,1402,1403,1404,1405,1406,1407,1408,1409,1410,1411,1412,1413,1414,1415,1416,1417,1418,1419,1420,1421,1422,1423,1424,1425,1426,1427,1428,1429,1430,1431,1432,1433,1434,1435,1436,1437,1438,1439,1440,1441,1442,1443,1444,1445,1446,1447,1448,1449,1450,1451,1452,1453,1454,1455,1456,1457,1458,1459,1460,1461,1462,1463,1464,1465,1466,1467,1468,1469,1470,1471,1472,1473,1474,1475,1476,1477,1478,1479,1480,1481,1482,1483,1484,1485,1486,1487,1488,1489,1490,1491,1492,1493,1494,1495,1496,1497,1498,1499,1500,1501,1502,1503,1504,1505,1506,1507,1508,1509,1510,1511,1512,1513,1514,1515,1516,1517,1518,1519,1520,1521,1522,1523,1524,1525,1526,1527,1528,1529,1530,1531,1532,1533,1534,1535,1536,1537,1538,1539,1540,1541,1542,1543,1544,1545,1546,1547,1548,1549,1550,1551,1552,1553,1554,1555,1556,1557,1558,1559,1560,1561,1562,1563,1564,1565,1566,1567,1568,1569,1570,1571,1572,1573,1574,1575,1576,1577,1578,1579,1580,1581,1582,1583,1584,1585,1586,1587,1588,1589,1590,1591,1592,1593,1594,1595,1596,1597,1598,1599,1600],"tree_info":[0,0,0,0,0,0,0,0,0,0,0,0,0,0,0,0,0,0,0,0,0,0,0,0,0,0,0,0,0,0,0,0,0,0,0,0,0,0,0,0,0,0,0,0,0,0,0,0,0,0,0,0,0,0,0,0,0,0,0,0,0,0,0,0,0,0,0,0,0,0,0,0,0,0,0,0,0,0,0,0,0,0,0,0,0,0,0,0,0,0,0,0,0,0,0,0,0,0,0,0,0,0,0,0,0,0,0,0,0,0,0,0,0,0,0,0,0,0,0,0,0,0,0,0,0,0,0,0,0,0,0,0,0,0,0,0,0,0,0,0,0,0,0,0,0,0,0,0,0,0,0,0,0,0,0,0,0,0,0,0,0,0,0,0,0,0,0,0,0,0,0,0,0,0,0,0,0,0,0,0,0,0,0,0,0,0,0,0,0,0,0,0,0,0,0,0,0,0,0,0,0,0,0,0,0,0,0,0,0,0,0,0,0,0,0,0,0,0,0,0,0,0,0,0,0,0,0,0,0,0,0,0,0,0,0,0,0,0,0,0,0,0,0,0,0,0,0,0,0,0,0,0,0,0,0,0,0,0,0,0,0,0,0,0,0,0,0,0,0,0,0,0,0,0,0,0,0,0,0,0,0,0,0,0,0,0,0,0,0,0,0,0,0,0,0,0,0,0,0,0,0,0,0,0,0,0,0,0,0,0,0,0,0,0,0,0,0,0,0,0,0,0,0,0,0,0,0,0,0,0,0,0,0,0,0,0,0,0,0,0,0,0,0,0,0,0,0,0,0,0,0,0,0,0,0,0,0,0,0,0,0,0,0,0,0,0,0,0,0,0,0,0,0,0,0,0,0,0,0,0,0,0,0,0,0,0,0,0,0,0,0,0,0,0,0,0,0,0,0,0,0,0,0,0,0,0,0,0,0,0,0,0,0,0,0,0,0,0,0,0,0,0,0,0,0,0,0,0,0,0,0,0,0,0,0,0,0,0,0,0,0,0,0,0,0,0,0,0,0,0,0,0,0,0,0,0,0,0,0,0,0,0,0,0,0,0,0,0,0,0,0,0,0,0,0,0,0,0,0,0,0,0,0,0,0,0,0,0,0,0,0,0,0,0,0,0,0,0,0,0,0,0,0,0,0,0,0,0,0,0,0,0,0,0,0,0,0,0,0,0,0,0,0,0,0,0,0,0,0,0,0,0,0,0,0,0,0,0,0,0,0,0,0,0,0,0,0,0,0,0,0,0,0,0,0,0,0,0,0,0,0,0,0,0,0,0,0,0,0,0,0,0,0,0,0,0,0,0,0,0,0,0,0,0,0,0,0,0,0,0,0,0,0,0,0,0,0,0,0,0,0,0,0,0,0,0,0,0,0,0,0,0,0,0,0,0,0,0,0,0,0,0,0,0,0,0,0,0,0,0,0,0,0,0,0,0,0,0,0,0,0,0,0,0,0,0,0,0,0,0,0,0,0,0,0,0,0,0,0,0,0,0,0,0,0,0,0,0,0,0,0,0,0,0,0,0,0,0,0,0,0,0,0,0,0,0,0,0,0,0,0,0,0,0,0,0,0,0,0,0,0,0,0,0,0,0,0,0,0,0,0,0,0,0,0,0,0,0,0,0,0,0,0,0,0,0,0,0,0,0,0,0,0,0,0,0,0,0,0,0,0,0,0,0,0,0,0,0,0,0,0,0,0,0,0,0,0,0,0,0,0,0,0,0,0,0,0,0,0,0,0,0,0,0,0,0,0,0,0,0,0,0,0,0,0,0,0,0,0,0,0,0,0,0,0,0,0,0,0,0,0,0,0,0,0,0,0,0,0,0,0,0,0,0,0,0,0,0,0,0,0,0,0,0,0,0,0,0,0,0,0,0,0,0,0,0,0,0,0,0,0,0,0,0,0,0,0,0,0,0,0,0,0,0,0,0,0,0,0,0,0,0,0,0,0,0,0,0,0,0,0,0,0,0,0,0,0,0,0,0,0,0,0,0,0,0,0,0,0,0,0,0,0,0,0,0,0,0,0,0,0,0,0,0,0,0,0,0,0,0,0,0,0,0,0,0,0,0,0,0,0,0,0,0,0,0,0,0,0,0,0,0,0,0,0,0,0,0,0,0,0,0,0,0,0,0,0,0,0,0,0,0,0,0,0,0,0,0,0,0,0,0,0,0,0,0,0,0,0,0,0,0,0,0,0,0,0,0,0,0,0,0,0,0,0,0,0,0,0,0,0,0,0,0,0,0,0,0,0,0,0,0,0,0,0,0,0,0,0,0,0,0,0,0,0,0,0,0,0,0,0,0,0,0,0,0,0,0,0,0,0,0,0,0,0,0,0,0,0,0,0,0,0,0,0,0,0,0,0,0,0,0,0,0,0,0,0,0,0,0,0,0,0,0,0,0,0,0,0,0,0,0,0,0,0,0,0,0,0,0,0,0,0,0,0,0,0,0,0,0,0,0,0,0,0,0,0,0,0,0,0,0,0,0,0,0,0,0,0,0,0,0,0,0,0,0,0,0,0,0,0,0,0,0,0,0,0,0,0,0,0,0,0,0,0,0,0,0,0,0,0,0,0,0,0,0,0,0,0,0,0,0,0,0,0,0,0,0,0,0,0,0,0,0,0,0,0,0,0,0,0,0,0,0,0,0,0,0,0,0,0,0,0,0,0,0,0,0,0,0,0,0,0,0,0,0,0,0,0,0,0,0,0,0,0,0,0,0,0,0,0,0,0,0,0,0,0,0,0,0,0,0,0,0,0,0,0,0,0,0,0,0,0,0,0,0,0,0,0,0,0,0,0,0,0,0,0,0,0,0,0,0,0,0,0,0,0,0,0,0,0,0,0,0,0,0,0,0,0,0,0,0,0,0,0,0,0,0,0,0,0,0,0,0,0,0,0,0,0,0,0,0,0,0,0,0,0,0,0,0,0,0,0,0,0,0,0,0,0,0,0,0,0,0,0,0,0,0,0,0,0,0,0,0,0,0,0,0,0,0,0,0,0,0,0,0,0,0,0,0,0,0,0,0,0,0,0,0,0,0,0,0,0,0,0,0,0,0,0,0,0,0,0,0,0,0,0,0,0,0,0,0,0,0,0,0,0,0,0,0,0,0,0,0,0,0,0,0,0,0,0,0,0,0,0,0,0,0,0,0,0,0,0,0,0,0,0,0,0,0,0,0,0,0,0,0,0,0,0,0,0,0,0,0,0,0,0,0,0,0,0,0,0,0,0,0,0,0,0,0,0,0,0,0,0,0,0,0,0,0,0,0,0,0,0,0,0,0,0,0,0,0,0,0,0,0,0,0,0,0,0,0,0,0,0,0,0,0,0,0,0,0,0,0,0,0,0,0,0,0,0,0,0,0,0,0,0,0,0,0,0,0,0,0,0,0,0,0,0,0,0,0,0,0,0,0,0,0,0,0,0,0,0,0,0,0,0,0,0,0,0,0,0,0,0,0,0,0,0,0,0,0,0,0,0,0,0,0,0,0,0,0,0,0,0,0,0,0,0,0,0,0,0,0,0,0,0,0,0,0,0,0,0,0,0,0,0,0,0,0,0,0,0,0,0,0,0,0,0,0,0,0,0,0,0,0,0,0,0,0],"trees":[{"base_weights":[-5.734038E0,9.127248E1,-7.180356E1,2.3475096E1,1.5224702E2,-4.113514E1,-1.1980871E2,7.675669E1,-2.1800434E1,2.6757553E2,9.029866E1,-7.8374695E1,2.4820623E0,-4.3113055E0,-9.415074E1,6.9005644E-1,3.1551373E0,-2.5645452E0,3.656122E-1,1.0606995E1,6.434744E0,3.33767E0,1.4407383E0,-1.0984068E0,-3.009634E0,9.280642E-1,-4.5816016E-1,-1.9593107E0,-3.0404093E0],"categories":[],"categories_nodes":[],"categories_segments":[],"categories_sizes":[],"default_left":[0,0,0,0,0,0,0,0,0,0,0,0,0,0,0,0,0,0,0,0,0,0,0,0,0,0,0,0,0],"id":0,"left_children":[1,3,5,7,9,11,13,15,17,19,21,23,25,-1,27,-1,-1,-1,-1,-1,-1,-1,-1,-1,-1,-1,-1,-1,-1],"loss_changes":[2.1984908E6,5.710384E5,2.9540738E5,1.633015E5,4.9737675E5,2.0485519E5,3.4915125E4,4.4929547E4,8.112808E4,3.8276125E4,3.8066344E4,5.8648062E4,3.027727E4,0E0,1.8885625E3,0E0,0E0,0E0,0E0,0E0,0E0,0E0,0E0,0E0,0E0,0E0,0E0,0E0,0E0],"parents":[2147483647,0,0,1,1,2,2,3,3,4,4,5,5,6,6,7,7,8,8,9,9,10,10,11,11,12,12,14,14],"right_children":[2,4,6,8,10,12,14,16,18,20,22,24,26,-1,28,-1,-1,-1,-1,-1,-1,-1,-1,-1,-1,-1,-1,-1,-1],"split_conditions":[4.5296872E-1,3.2510896E0,7.329369E-1,4.4084005E0,3.9841077E0,3.6164973E0,3.3913631E0,7.896274E3,1.7302665E0,2.1333244E0,3.6138684E-1,4.2740273E0,5.5693704E-1,-4.3113055E0,3.7439135E-1,6.9005644E-1,3.1551373E0,-2.5645452E0,3.656122E-1,1.0606995E1,6.434744E0,3.33767E0,1.4407383E0,-1.0984068E0,-3.009634E0,9.280642E-1,-4.5816016E-1,-1.9593107E0,-3.0404093E0],"split_indices":[4,6,4,5,5,6,6,3,6,5,4,5,4,0,8,0,0,0,0,0,0,0,0,0,0,0,0,0,0],"split_type":[0,0,0,0,0,0,0,0,0,0,0,0,0,0,0,0,0,0,0,0,0,0,0,0,0,0,0,0,0],"sum_hessian":[3.41E2,1.38E2,2.03E2,6.6E1,7.2E1,1.25E2,7.8E1,3E1,3.6E1,2.4E1,4.8E1,6.7E1,5.8E1,3.8E1,4E1,1.1E1,1.9E1,1.2E1,2.4E1,7E0,1.7E1,3.1E1,1.7E1,2.4E1,4.3E1,2.2E1,3.6E1,1E1,3E1],"tree_param":{"num_deleted":"0","num_feature":"9","num_nodes":"29","size_leaf_vector":"1"}},{"base_weights":[8.143798E-2,8.0717094E1,-8.556309E1,1.5560193E2,3.559343E1,-4.5740974E1,-1.2152204E2,1.9920798E2,9.954112E1,6.114952E1,5.83153E0,1.0277832E1,-6.39553E1,-2.1109183E0,-3.8016808E0,2.9012754E0,6.6413527E0,3.474084E0,4.5576838E-1,2.4479914E0,7.101456E-2,-1.1525825E0,6.594394E-1,1.2855633E0,-7.974198E-1,-9.020716E-1,-2.4567103E0],"categories":[],"categories_nodes":[],"categories_segments":[],"categories_sizes":[],"default_left":[0,0,0,0,0,0,0,0,0,0,0,0,0,0,0,0,0,0,0,0,0,0,0,0,0,0,0],"id":1,"left_children":[1,3,5,7,9,11,13,15,17,19,21,23,25,-1,-1,-1,-1,-1,-1,-1,-1,-1,-1,-1,-1,-1,-1],"loss_changes":[2.2927932E6,5.72282E5,2.2498575E5,1.3662138E5,8.17873E4,8.0244734E4,1.343E4,5.8123E4,3.938897E4,6.952844E4,3.729115E4,2.5151979E4,3.3393844E4,0E0,0E0,0E0,0E0,0E0,0E0,0E0,0E0,0E0,0E0,0E0,0E0,0E0,0E0],"parents":[2147483647,0,0,1,1,2,2,3,3,4,4,5,5,6,6,7,7,8,8,9,9,10,10,11,11,12,12],"right_children":[2,4,6,8,10,12,14,16,18,20,22,24,26,-1,-1,-1,-1,-1,-1,-1,-1,-1,-1,-1,-1,-1,-1],"split_conditions":[5.482886E-1,3.9104264E0,7.329369E-1,2.9913083E-1,6.4930854E0,2.6791975E0,1.9179943E1,1.4257532E-1,8.189203E1,4.3657145E-1,2.3285378E1,6.595628E-1,3.927873E1,-2.1109183E0,-3.8016808E0,2.9012754E0,6.6413527E0,3.474084E0,4.5576838E-1,2.4479914E0,7.101456E-2,-1.1525825E0,6.594394E-1,1.2855633E0,-7.974198E-1,-9.020716E-1,-2.4567103E0],"split_indices":[4,5,4,4,5,5,0,2,0,4,7,4,0,0,0,0,0,0,0,0,0,0,0,0,0,0,0],"split_type":[0,0,0,0,0,0,0,0,0,0,0,0,0,0,0,0,0,0,0,0,0,0,0,0,0,0,0],"sum_hessian":[3.3E2,1.7E2,1.6E2,6.3E1,1.07E2,7.7E1,8.3E1,3.4E1,2.9E1,5.7E1,5E1,1.9E1,5.8E1,9E0,7.4E1,7E0,2.7E1,2.4E1,5E0,4.2E1,1.5E1,1.3E1,3.7E1,1E1,9E0,2.1E1,3.7E1],"tree_param":{"num_deleted":"0","num_feature":"9","num_nodes":"27","size_leaf_vector":"1"}},{"base_weights":[9.480788E0,9.183979E1,-7.191394E1,1.417809E2,4.7906003E0,-1.02474985E1,-9.154291E1,3.4558567E1,1.7120271E2,-7.61713E1,4.8262894E1,-3.6977024E1,2.2091334E0,-1.3559581E2,-6.999986E1,3.0109296E0,-2.1684371E-1,9.135681E0,4.134075E0,-2.727393E0,-1.0109607E0,2.867579E0,9.890023E-1,-1.8766431E0,-2.7262765E-1,-1.725203E0,-4.3616343E0,-1.9325246E-1,-2.4150982E0],"categories":[],"categories_nodes":[],"categories_segments":[],"categories_sizes":[],"default_left":[0,0,0,0,0,0,0,0,0,0,0,0,0,0,0,0,0,0,0,0,0,0,0,0,0,0,0,0,0],"id":2,"left_children":[1,3,5,7,9,11,13,15,17,19,21,23,-1,25,27,-1,-1,-1,-1,-1,-1,-1,-1,-1,-1,-1,-1,-1,-1],"loss_changes":[2.1450495E6,6.905454E5,1.9394319E5,3.127035E5,2.1133233E5,9.2411086E4,1.0628825E5,6.3971883E4,3.09812E5,1.008368E4,2.5078125E4,2.1544629E4,0E0,2.14585E4,5.5557E4,0E0,0E0,0E0,0E0,0E0,0E0,0E0,0E0,0E0,0E0,0E0,0E0,0E0,0E0],"parents":[2147483647,0,0,1,1,2,2,3,3,4,4,5,5,6,6,7,7,8,8,9,9,10,10,11,11,13,13,14,14],"right_children":[2,4,6,8,10,12,14,16,18,20,22,24,-1,26,28,-1,-1,-1,-1,-1,-1,-1,-1,-1,-1,-1,-1,-1,-1],"split_conditions":[4.9845913E-1,6.3035045E0,5.886784E-1,2.270294E0,2.3862946E0,4.9985547E0,2.3459172E0,1.8799775E0,1.9613996E0,2.0482101E0,3.057407E1,3.0983257E0,2.2091334E0,2.1032995E1,2.0367716E1,3.0109296E0,-2.1684371E-1,9.135681E0,4.134075E0,-2.727393E0,-1.0109607E0,2.867579E0,9.890023E-1,-1.8766431E0,-2.7262765E-1,-1.725203E0,-4.3616343E0,-1.9325246E-1,-2.4150982E0],"split_indices":[4,5,4,6,6,6,6,5,5,6,0,6,0,0,0,0,0,0,0,0,0,0,0,0,0,0,0,0,0],"split_type":[0,0,0,0,0,0,0,0,0,0,0,0,0,0,0,0,0,0,0,0,0,0,0,0,0,0,0,0,0],"sum_hessian":[3.18E2,1.58E2,1.6E2,1E2,5.8E1,3.9E1,1.21E2,2.2E1,7.8E1,2E1,3.8E1,3E1,9E0,3.8E1,8.3E1,8E0,1.4E1,1.4E1,6.4E1,1.4E1,6E0,8E0,3E1,1.5E1,1.5E1,5E0,3.3E1,1.2E1,7.1E1],"tree_param":{"num_deleted":"0","num_feature":"9","num_nodes":"29","size_leaf_vector":"1"}},{"base_weights":[3.2401626E0,8.260754E1,-7.375609E1,1.6391863E1,1.2727021E2,-1.8571865E1,-9.947451E1,9.142531E1,-2.8660948E1,2.4967798E2,9.776869E1,-6.2524452E1,4.3386597E1,-1.3581442E2,-8.211526E1,3.8857589E0,1.5671123E0,-1.4135033E0,4.8400038E-1,4.7401137E0,9.216478E0,3.6962368E0,1.326331E0,-2.8106081E0,-1.2521846E0,2.3760371E0,2.9231104E-1,-2.3839827E0,-4.2766976E0,-1.2314495E0,-2.7098632E0],"categories":[],"categories_nodes":[],"categories_segments":[],"categories_sizes":[],"default_left":[0,0,0,0,0,0,0,0,0,0,0,0,0,0,0,0,0,0,0,0,0,0,0,0,0,0,0,0,0,0,0],"id":3,"left_children":[1,3,5,7,9,11,13,15,17,19,21,23,25,27,29,-1,-1,-1,-1,-1,-1,-1,-1,-1,-1,-1,-1,-1,-1,-1,-1],"loss_changes":[1.9982758E6,4.7404875E5,2.3374712E5,2.2573183E5,3.2226238E5,1.497676E5,6.0129625E4,3.0558922E4,3.5482527E4,4.6399625E4,1.0218581E5,1.6814953E4,2.6940285E4,1.96625E3,2.2937875E4,0E0,0E0,0E0,0E0,0E0,0E0,0E0,0E0,0E0,0E0,0E0,0E0,0E0,0E0,0E0,0E0],"parents":[2147483647,0,0,1,1,2,2,3,3,4,4,5,5,6,6,7,7,8,8,9,9,10,10,11,11,12,12,13,13,14,14],"right_children":[2,4,6,8,10,12,14,16,18,20,22,24,26,28,30,-1,-1,-1,-1,-1,-1,-1,-1,-1,-1,-1,-1,-1,-1,-1,-1],"split_conditions":[4.9845913E-1,3.0486822E0,6.242902E-1,3.2248063E0,2.5074265E0,4.2632656E0,2.1779253E0,2.0709536E0,2.6040187E0,4.6123993E1,6.678381E0,2.1911001E0,3.540841E0,2.6763868E1,2.3079875E0,3.8857589E0,1.5671123E0,-1.4135033E0,4.8400038E-1,4.7401137E0,9.216478E0,3.6962368E0,1.326331E0,-2.8106081E0,-1.2521846E0,2.3760371E0,2.9231104E-1,-2.3839827E0,-4.2766976E0,-1.2314495E0,-2.7098632E0],"split_indices":[4,6,4,5,5,6,6,5,6,0,5,6,5,0,5,0,0,0,0,0,0,0,0,0,0,0,0,0,0,0,0],"split_type":[0,0,0,0,0,0,0,0,0,0,0,0,0,0,0,0,0,0,0,0,0,0,0,0,0,0,0,0,0,0,0],"sum_hessian":[3.25E2,1.6E2,1.65E2,6.5E1,9.5E1,5.3E1,1.12E2,2.4E1,4.1E1,1.7E1,7.8E1,3.1E1,2.2E1,3.4E1,7.8E1,1.1E1,1.3E1,2.9E1,1.2E1,8E0,9E0,5.2E1,2.6E1,1.1E1,2E1,1E1,1.2E1,5E0,2.9E1,1.4E1,6.4E1],"tree_param":{"num_deleted":"0","num_feature":"9","num_nodes":"31","size_leaf_vector":"1"}},{"base_weights":[-5.8581443E0,6.587253E1,-6.9868576E1,7.701722E0,1.3781978E2,-9.5948715E1,-3.1058544E1,-6.921827E1,2.6818607E1,1.8802113E2,9.203405E1,-1.1687597E2,-7.6701225E1,1.5670876E1,-7.189698E1,-1.3036841E0,-2.6186512E0,1.611869E0,1.2478214E-1,6.6399674E0,1.9375163E0,2.9908314E0,1.0751476E0,-2.4998648E0,-3.8269825E0,-1.6359762E0,-3.0336583E0,-4.4872457E-1,1.1708071E0,-1.5452123E0,-3.167311E0],"categories":[],"categories_nodes":[],"categories_segments":[],"categories_sizes":[],"default_left":[0,0,0,0,0,0,0,0,0,0,0,0,0,0,0,0,0,0,0,0,0,0,0,0,0,0,0,0,0,0,0],"id":4,"left_children":[1,3,5,7,9,11,13,15,17,19,21,23,25,27,29,-1,-1,-1,-1,-1,-1,-1,-1,-1,-1,-1,-1,-1,-1,-1,-1],"loss_changes":[1.4601118E6,6.2672144E5,1.670635E5,1.25375445E5,1.3669288E5,3.1313188E4,1.3280386E5,4.1193906E3,4.1240105E4,1.131695E5,1.2353469E4,5.864625E3,2.4259656E4,2.4190762E4,1.9969594E4,0E0,0E0,0E0,0E0,0E0,0E0,0E0,0E0,0E0,0E0,0E0,0E0,0E0,0E0,0E0,0E0],"parents":[2147483647,0,0,1,1,2,2,3,3,4,4,5,5,6,6,7,7,8,8,9,9,10,10,11,11,12,12,13,13,14,14],"right_children":[2,4,6,8,10,12,14,16,18,20,22,24,26,28,30,-1,-1,-1,-1,-1,-1,-1,-1,-1,-1,-1,-1,-1,-1,-1,-1],"split_conditions":[4.9290335E-1,3.7452824E0,3.8214316E0,1.3787397E0,3.987745E-1,2.3459172E0,6.790812E-1,5.560614E1,4.784612E1,4.1184568E-1,4.246306E-1,5.0296337E1,7.2933906E-1,4.6221213E0,8.1511015E-1,-1.3036841E0,-2.6186512E0,1.611869E0,1.2478214E-1,6.6399674E0,1.9375163E0,2.9908314E0,1.0751476E0,-2.4998648E0,-3.8269825E0,-1.6359762E0,-3.0336583E0,-4.4872457E-1,1.1708071E0,-1.5452123E0,-3.167311E0],"split_indices":[4,6,6,6,8,6,4,0,0,4,4,0,4,6,4,0,0,0,0,0,0,0,0,0,0,0,0,0,0,0,0],"split_type":[0,0,0,0,0,0,0,0,0,0,0,0,0,0,0,0,0,0,0,0,0,0,0,0,0,0,0,0,0,0,0],"sum_hessian":[3.16E2,1.49E2,1.67E2,8.3E1,6.6E1,9.9E1,6.8E1,1.6E1,6.7E1,3E1,3.6E1,4.5E1,5.4E1,3.2E1,3.6E1,8E0,8E0,3E1,3.7E1,2.3E1,7E0,3.1E1,5E0,1.3E1,3.2E1,3E1,2.4E1,1.4E1,1.8E1,2.4E1,1.2E1],"tree_param":{"num_deleted":"0","num_feature":"9","num_nodes":"31","size_leaf_vector":"1"}},{"base_weights":[-4.1717315E0,-5.7090004E1,2.7546635E1,6.2397125E1,-7.509694E1,9.547287E1,-2.8988917E0,3.1747544E0,3.303574E1,-3.8392803E1,-8.828778E1,1.7603165E2,7.422911E1,-2.0176481E1,7.1638756E1,1.961911E0,-1.4489529E-1,-2.0475063E-1,-1.6394306E0,-3.001896E0,-1.5270511E0,2.171384E0,8.028566E0,7.6814795E-1,2.7728095E0,-5.950214E-2,-1.7100139E0,-4.0452677E-1,2.7764614E0],"categories":[],"categories_nodes":[],"categories_segments":[],"categories_sizes":[],"default_left":[0,0,0,0,0,0,0,0,0,0,0,0,0,0,0,0,0,0,0,0,0,0,0,0,0,0,0,0,0],"id":5,"left_children":[1,3,5,7,9,11,13,-1,15,17,19,21,23,25,27,-1,-1,-1,-1,-1,-1,-1,-1,-1,-1,-1,-1,-1,-1],"loss_changes":[5.28616E5,2.5857444E5,4.0768353E5,1.6904312E4,4.6477375E4,9.13245E4,1.7787773E5,0E0,1.3795634E4,1.4507203E4,2.7922875E4,9.454509E4,4.1875062E4,7.49198E4,4.7526625E4,0E0,0E0,0E0,0E0,0E0,0E0,0E0,0E0,0E0,0E0,0E0,0E0,0E0,0E0],"parents":[2147483647,0,0,1,1,2,2,3,3,4,4,5,5,6,6,8,8,9,9,10,10,11,11,12,12,13,13,14,14],"right_children":[2,4,6,8,10,12,14,-1,16,18,20,22,24,26,28,-1,-1,-1,-1,-1,-1,-1,-1,-1,-1,-1,-1,-1,-1],"split_conditions":[2.9148414E0,1.8799775E0,3.9841077E0,1.3354193E0,3.9398415E0,1.8588388E0,5.2554502E0,3.1747544E0,4.4083977E1,4.784612E1,2.3592675E0,6.417829E1,7.3903994E3,8.351551E0,2.2563467E1,1.961911E0,-1.4489529E-1,-2.0475063E-1,-1.6394306E0,-3.001896E0,-1.5270511E0,2.171384E0,8.028566E0,7.6814795E-1,2.7728095E0,-5.950214E-2,-1.7100139E0,-4.0452677E-1,2.7764614E0],"split_indices":[6,5,5,5,5,5,6,0,0,0,6,0,3,5,7,0,0,0,0,0,0,0,0,0,0,0,0,0,0],"split_type":[0,0,0,0,0,0,0,0,0,0,0,0,0,0,0,0,0,0,0,0,0,0,0,0,0,0,0,0,0],"sum_hessian":[3.13E2,1.17E2,1.96E2,1.5E1,1.02E2,6E1,1.36E2,5E0,1E1,2.8E1,7.4E1,1.1E1,4.9E1,1.11E2,2.5E1,5E0,5E0,1E1,1.8E1,5.5E1,1.9E1,6E0,5E0,1.4E1,3.5E1,7.5E1,3.6E1,5E0,2E1],"tree_param":{"num_deleted":"0","num_feature":"9","num_nodes":"29","size_leaf_vector":"1"}},{"base_weights":[3.5096853E0,-6.447407E1,2.7756828E1,1.9835082E0,-7.961365E1,6.0170345E1,-1.5516992E1,-3.5542126E1,-1.0060236E2,3.8676273E1,1.075529E2,-2.6404627E1,5.0097523E1,1.897779E-1,-1.671235E0,-2.4994261E0,-3.6309795E0,3.1599305E0,7.791977E-1,3.9502313E0,6.3073003E-1,4.8765633E-1,-1.1619178E0,-9.180877E-1,2.686876E0],"categories":[],"categories_nodes":[],"categories_segments":[],"categories_sizes":[],"default_left":[0,0,0,0,0,0,0,0,0,0,0,0,0,0,0,0,0,0,0,0,0,0,0,0,0],"id":6,"left_children":[1,3,5,-1,7,9,11,13,15,17,19,21,23,-1,-1,-1,-1,-1,-1,-1,-1,-1,-1,-1,-1],"loss_changes":[5.704913E5,1.8517944E5,3.586116E5,0E0,7.227344E4,1.4453169E5,7.9905125E4,2.399327E4,9.3403125E3,8.362795E4,9.115394E4,5.058307E4,5.3698973E4,0E0,0E0,0E0,0E0,0E0,0E0,0E0,0E0,0E0,0E0,0E0,0E0],"parents":[2147483647,0,0,1,1,2,2,4,4,5,5,6,6,7,7,8,8,9,9,10,10,11,11,12,12],"right_children":[2,4,6,-1,8,10,12,14,16,18,20,22,24,-1,-1,-1,-1,-1,-1,-1,-1,-1,-1,-1,-1],"split_conditions":[2.3229146E0,1.8325834E0,5.718659E0,1.9835082E0,4.6467148E1,4.9985547E0,5.4475613E0,3.540841E0,4.1423792E-1,3.5958114E-1,5.774925E0,3.466967E1,2.577124E1,1.897779E-1,-1.671235E0,-2.4994261E0,-3.6309795E0,3.1599305E0,7.791977E-1,3.9502313E0,6.3073003E-1,4.8765633E-1,-1.1619178E0,-9.180877E-1,2.686876E0],"split_indices":[6,5,5,0,0,6,6,5,8,8,6,0,7,0,0,0,0,0,0,0,0,0,0,0,0],"split_type":[0,0,0,0,0,0,0,0,0,0,0,0,0,0,0,0,0,0,0,0,0,0,0,0,0],"sum_hessian":[3.44E2,9E1,2.54E2,9E0,8.1E1,1.45E2,1.09E2,2.7E1,5.4E1,1.01E2,4.4E1,9.4E1,1.5E1,9E0,1.8E1,3.2E1,2.2E1,1.5E1,8.6E1,3.4E1,1E1,2.1E1,7.3E1,5E0,1E1],"tree_param":{"num_deleted":"0","num_feature":"9","num_nodes":"25","size_leaf_vector":"1"}},{"base_weights":[1.7687725E0,7.037575E1,-7.614469E1,1.7938263E2,2.4465801E1,-5.325485E1,-1.09620346E2,2.3711165E2,1.1714755E2,6.183601E1,-4.827399E0,-7.313539E0,-6.637052E1,-7.797116E1,-3.6537404E0,8.321313E0,4.7096157E0,5.298313E0,2.868152E0,3.9759438E0,1.4094813E0,-8.5034204E-1,5.2646786E-1,1.1713538E0,-9.465378E-1,1.8378039E-1,-2.1886299E0,-1.4521096E0,-2.6155448E0],"categories":[],"categories_nodes":[],"categories_segments":[],"categories_sizes":[],"default_left":[0,0,0,0,0,0,0,0,0,0,0,0,0,0,0,0,0,0,0,0,0,0,0,0,0,0,0,0,0],"id":7,"left_children":[1,3,5,7,9,11,13,15,17,19,21,23,25,27,-1,-1,-1,-1,-1,-1,-1,-1,-1,-1,-1,-1,-1,-1,-1],"loss_changes":[1.7693432E6,8.764014E5,1.12929625E5,1.5904338E5,1.371357E5,5.6153625E4,1.4384375E4,4.03335E4,1.7698875E4,5.152486E4,3.7859973E4,2.5951674E4,3.529072E4,1.2270859E3,0E0,0E0,0E0,0E0,0E0,0E0,0E0,0E0,0E0,0E0,0E0,0E0,0E0,0E0,0E0],"parents":[2147483647,0,0,1,1,2,2,3,3,4,4,5,5,6,6,7,7,8,8,9,9,10,10,11,11,12,12,13,13],"right_children":[2,4,6,8,10,12,14,16,18,20,22,24,26,28,-1,-1,-1,-1,-1,-1,-1,-1,-1,-1,-1,-1,-1,-1,-1],"split_conditions":[5.482886E-1,3.148798E0,7.6175016E-1,2.6492837E-1,6.3035045E0,2.6763868E1,4.509143E1,2.1640518E0,7.1876743E3,7.1822217E3,3.006401E1,3.9328033E-1,1.6723278E0,3.6934298E-1,-3.6537404E0,8.321313E0,4.7096157E0,5.298313E0,2.868152E0,3.9759438E0,1.4094813E0,-8.5034204E-1,5.2646786E-1,1.1713538E0,-9.465378E-1,1.8378039E-1,-2.1886299E0,-1.4521096E0,-2.6155448E0],"split_indices":[4,5,4,4,5,0,0,5,3,3,7,8,5,8,0,0,0,0,0,0,0,0,0,0,0,0,0,0,0],"split_type":[0,0,0,0,0,0,0,0,0,0,0,0,0,0,0,0,0,0,0,0,0,0,0,0,0,0,0,0,0],"sum_hessian":[3.29E2,1.75E2,1.54E2,5.1E1,1.24E2,9.3E1,6.1E1,2.5E1,2.6E1,5.4E1,7E1,2.1E1,7.2E1,1.9E1,4.2E1,1.5E1,1E1,5E0,2.1E1,8E0,4.6E1,3.4E1,3.6E1,7E0,1.4E1,6E0,6.6E1,6E0,1.3E1],"tree_param":{"num_deleted":"0","num_feature":"9","num_nodes":"29","size_leaf_vector":"1"}},{"base_weights":[1.3474405E0,7.183581E1,-1.5926166E1,3.973501E1,1.3108757E2,4.418013E0,-3.8549175E1,4.446215E0,1.6905006E1,1.8651024E2,1.0939862E0,1.2129611E1,-6.1445427E1,2.3277534E1,-5.2960377E1,-1.1070899E0,1.1971418E0,7.217338E0,2.4999976E0,-3.8625312E-1,1.1594949E0,-3.074408E0,-5.357402E-1,-1.5254307E0,1.7665777E0,-1.1735027E0,-2.2193358E0],"categories":[],"categories_nodes":[],"categories_segments":[],"categories_sizes":[],"default_left":[0,0,0,0,0,0,0,0,0,0,0,0,0,0,0,0,0,0,0,0,0,0,0,0,0,0,0],"id":8,"left_children":[1,3,5,7,9,11,13,-1,15,17,-1,19,21,23,25,-1,-1,-1,-1,-1,-1,-1,-1,-1,-1,-1,-1],"loss_changes":[3.7737938E5,1.1081328E5,1.14772055E5,9.902611E4,1.03324E5,6.778925E4,1.06370734E5,0E0,4.4787555E4,5.2469688E4,0E0,7.941041E4,2.3209145E4,6.3702332E4,2.5037062E4,0E0,0E0,0E0,0E0,0E0,0E0,0E0,0E0,0E0,0E0,0E0,0E0],"parents":[2147483647,0,0,1,1,2,2,3,3,4,4,5,5,6,6,8,8,9,9,11,11,12,12,13,13,14,14],"right_children":[2,4,6,8,10,12,14,-1,16,18,-1,20,22,24,26,-1,-1,-1,-1,-1,-1,-1,-1,-1,-1,-1,-1],"split_conditions":[2.6171687E0,3.293929E-1,6.059182E0,1.7479519E1,8.1112983E3,8.812919E3,3.2043575E1,4.446215E0,2.2647768E1,1.6538712E0,1.0939862E0,2.7791408E-1,4.497366E0,7.143156E0,4.122274E-1,-1.1070899E0,1.1971418E0,7.217338E0,2.4999976E0,-3.8625312E-1,1.1594949E0,-3.074408E0,-5.357402E-1,-1.5254307E0,1.7665777E0,-1.1735027E0,-2.2193358E0],"split_indices":[5,2,5,0,3,3,0,0,7,5,0,2,5,5,8,0,0,0,0,0,0,0,0,0,0,0,0],"split_type":[0,0,0,0,0,0,0,0,0,0,0,0,0,0,0,0,0,0,0,0,0,0,0,0,0,0,0],"sum_hessian":[3.08E2,6E1,2.48E2,4E1,2E1,1.31E2,1.17E2,6E0,3.4E1,1.2E1,8E0,1.18E2,1.3E1,2.2E1,9.5E1,1E1,2.4E1,7E0,5E0,6.1E1,5.7E1,6E0,7E0,7E0,1.5E1,5.9E1,3.6E1],"tree_param":{"num_deleted":"0","num_feature":"9","num_nodes":"27","size_leaf_vector":"1"}},{"base_weights":[-7.087721E0,6.640084E1,-2.6968775E1,3.2147102E1,1.3202089E2,-6.5596985E1,1.5074654E1,6.0181637E1,-1.171102E0,1.8244583E2,-2.789513E-1,-8.220702E1,-4.0389767E1,4.337017E1,-3.367689E1,1.140582E0,3.3521242E0,-2.3187573E0,7.729009E-1,8.3330935E-1,7.337268E0,-1.8854374E0,-2.998632E0,-2.2209752E0,-8.7043923E-1,7.121397E-1,2.8377535E0,-1.768345E0,-2.0832889E-1],"categories":[],"categories_nodes":[],"categories_segments":[],"categories_sizes":[],"default_left":[0,0,0,0,0,0,0,0,0,0,0,0,0,0,0,0,0,0,0,0,0,0,0,0,0,0,0,0,0],"id":9,"left_children":[1,3,5,7,9,11,13,15,17,19,-1,21,23,25,27,-1,-1,-1,-1,-1,-1,-1,-1,-1,-1,-1,-1,-1,-1],"loss_changes":[4.663979E5,1.4860006E5,4.0862912E5,4.3037848E4,1.6559656E5,5.1527188E4,1.6837412E5,2.431511E4,4.7097824E4,1.5656588E5,0E0,2.0515125E4,1.8516227E4,7.518397E4,2.99865E4,0E0,0E0,0E0,0E0,0E0,0E0,0E0,0E0,0E0,0E0,0E0,0E0,0E0,0E0],"parents":[2147483647,0,0,1,1,2,2,3,3,4,4,5,5,6,6,7,7,8,8,9,9,11,11,12,12,13,13,14,14],"right_children":[2,4,6,8,10,12,14,16,18,20,-1,22,24,26,28,-1,-1,-1,-1,-1,-1,-1,-1,-1,-1,-1,-1,-1,-1],"split_conditions":[3.148798E0,4.129417E0,3.8056312E0,5.8251537E1,4.1516736E-1,2.4476466E0,7.569111E0,8.330343E3,6.3450275E1,3.293929E-1,-2.789513E-1,6.2211403E1,1.7136732E-1,5.3504E0,4.956202E0,1.140582E0,3.3521242E0,-2.3187573E0,7.729009E-1,8.3330935E-1,7.337268E0,-1.8854374E0,-2.998632E0,-2.2209752E0,-8.7043923E-1,7.121397E-1,2.8377535E0,-1.768345E0,-2.0832889E-1],"split_indices":[5,6,6,0,8,6,5,3,0,2,0,0,2,6,6,0,0,0,0,0,0,0,0,0,0,0,0,0,0],"split_type":[0,0,0,0,0,0,0,0,0,0,0,0,0,0,0,0,0,0,0,0,0,0,0,0,0,0,0,0,0],"sum_hessian":[3.17E2,6.7E1,2.5E2,4.5E1,2.2E1,1.3E2,1.2E2,2.4E1,2.1E1,1.6E1,6E0,7.7E1,5.3E1,7.6E1,4.4E1,1.8E1,6E0,5E0,1.6E1,5E0,1.1E1,3.9E1,3.8E1,1.2E1,4.1E1,5.6E1,2E1,2.2E1,2.2E1],"tree_param":{"num_deleted":"0","num_feature":"9","num_nodes":"29","size_leaf_vector":"1"}},{"base_weights":[-1.4095105E0,5.8213097E1,-7.3022835E1,-2.1976814E1,8.027825E1,-4.3759163E1,-1.0137359E2,2.63446E0,-3.918725E1,1.1817579E2,2.8901682E1,-7.126311E1,-8.163426E0,-3.7310488E0,-8.866003E1,-7.0145965E-2,-1.7034259E0,7.470698E0,3.210729E0,2.9848045E-1,2.335051E0,-7.8472376E-1,-2.2874136E0,-1.22056E0,3.5961044E-1,-2.0663512E0,-3.02176E0],"categories":[],"categories_nodes":[],"categories_segments":[],"categories_sizes":[],"default_left":[0,0,0,0,0,0,0,0,0,0,0,0,0,0,0,0,0,0,0,0,0,0,0,0,0,0,0],"id":10,"left_children":[1,3,5,7,9,11,13,-1,15,17,19,21,23,-1,25,-1,-1,-1,-1,-1,-1,-1,-1,-1,-1,-1,-1],"loss_changes":[1.4944018E6,3.397208E5,1.27476375E5,8.28027E4,2.8863988E5,7.77393E4,1.2359E4,0E0,2.3854031E4,9.883125E4,5.950581E4,8.120875E3,2.407989E4,0E0,6.1874375E3,0E0,0E0,0E0,0E0,0E0,0E0,0E0,0E0,0E0,0E0,0E0,0E0],"parents":[2147483647,0,0,1,1,2,2,3,3,4,4,5,5,6,6,8,8,9,9,10,10,11,11,12,12,14,14],"right_children":[2,4,6,8,10,12,14,-1,16,18,20,22,24,-1,26,-1,-1,-1,-1,-1,-1,-1,-1,-1,-1,-1,-1],"split_conditions":[5.482886E-1,2.270294E0,7.439501E-1,1.2082314E0,5.718659E0,3.8713846E0,2.9310148E0,2.63446E0,4.3459215E0,1.4123654E0,5.0180225E0,1.990211E0,2.2722943E-1,-3.7310488E0,8.106706E-1,-7.0145965E-2,-1.7034259E0,7.470698E0,3.210729E0,2.9848045E-1,2.335051E0,-7.8472376E-1,-2.2874136E0,-1.22056E0,3.5961044E-1,-2.0663512E0,-3.02176E0],"split_indices":[4,6,4,5,5,6,6,0,5,5,6,5,2,0,4,0,0,0,0,0,0,0,0,0,0,0,0],"split_type":[0,0,0,0,0,0,0,0,0,0,0,0,0,0,0,0,0,0,0,0,0,0,0,0,0,0,0],"sum_hessian":[3.48E2,1.9E2,1.58E2,4.1E1,1.49E2,7.9E1,7.9E1,5E0,3.6E1,8.5E1,6.4E1,4.4E1,3.5E1,2.5E1,5.4E1,1.2E1,2.4E1,5E0,8E1,4.7E1,1.7E1,5E0,3.9E1,1.3E1,2.2E1,2.3E1,3.1E1],"tree_param":{"num_deleted":"0","num_feature":"9","num_nodes":"27","size_leaf_vector":"1"}},{"base_weights":[-9.852821E0,7.825478E1,-6.8839424E1,3.38175E1,1.3613144E2,-2.6178886E1,-9.163152E1,1.0960301E2,1.493669E1,8.656009E0,1.05360794E2,-6.3818447E1,1.7956635E1,-1.0965913E2,-7.608687E1,4.2044754E0,2.2099695E0,-1.4612436E0,9.3557423E-1,4.0820518E0,1.4913929E0,-3.9556748E-1,-2.1869924E0,1.6865557E0,3.7967082E-2,-2.3589742E0,-3.5379581E0,-1.2467126E0,-2.604811E0],"categories":[],"categories_nodes":[],"categories_segments":[],"categories_sizes":[],"default_left":[0,0,0,0,0,0,0,0,0,0,0,0,0,0,0,0,0,0,0,0,0,0,0,0,0,0,0,0,0],"id":11,"left_children":[1,3,5,7,9,11,13,15,17,-1,19,21,23,25,27,-1,-1,-1,-1,-1,-1,-1,-1,-1,-1,-1,-1,-1,-1],"loss_changes":[1.7100581E6,3.34883E5,1.8914769E5,1.0710943E5,2.3689812E5,1.1743333E5,2.7524375E4,6.139922E3,6.563749E4,0E0,7.696531E4,1.6510781E4,2.1003121E4,5.355375E3,2.3092031E4,0E0,0E0,0E0,0E0,0E0,0E0,0E0,0E0,0E0,0E0,0E0,0E0,0E0,0E0],"parents":[2147483647,0,0,1,1,2,2,3,3,4,4,5,5,6,6,7,7,8,8,10,10,11,11,12,12,13,13,14,14],"right_children":[2,4,6,8,10,12,14,16,18,-1,20,22,24,26,28,-1,-1,-1,-1,-1,-1,-1,-1,-1,-1,-1,-1,-1,-1],"split_conditions":[4.601334E-1,3.8939927E0,6.3619673E-1,2.3876915E0,2.1640518E0,3.8939927E0,3.0486822E0,3.1297058E-1,1.7521518E0,8.656009E0,6.4930854E0,3.4568172E0,3.1880753E0,2.9554048E0,7.329369E-1,4.2044754E0,2.2099695E0,-1.4612436E0,9.3557423E-1,4.0820518E0,1.4913929E0,-3.9556748E-1,-2.1869924E0,1.6865557E0,3.7967082E-2,-2.3589742E0,-3.5379581E0,-1.2467126E0,-2.604811E0],"split_indices":[4,6,4,5,5,6,6,4,6,0,5,5,5,5,4,0,0,0,0,0,0,0,0,0,0,0,0,0,0],"split_type":[0,0,0,0,0,0,0,0,0,0,0,0,0,0,0,0,0,0,0,0,0,0,0,0,0,0,0,0,0],"sum_hessian":[3.27E2,1.31E2,1.96E2,7.5E1,5.6E1,6.9E1,1.27E2,1.4E1,6.1E1,8E0,4.8E1,3.7E1,3.2E1,5.6E1,7.1E1,6E0,8E0,1.2E1,4.9E1,3E1,1.8E1,6E0,3.1E1,9E0,2.3E1,1.4E1,4.2E1,1.8E1,5.3E1],"tree_param":{"num_deleted":"0","num_feature":"9","num_nodes":"29","size_leaf_vector":"1"}},{"base_weights":[-1.240136E0,6.822827E1,-6.001382E1,1.4751712E2,4.9347614E1,-3.8968967E1,-9.1470474E1,5.8542624E0,6.050334E1,7.9037186E1,2.9693754E1,1.2577202E0,-4.716015E1,-4.2743637E1,-9.926898E1,2.324425E0,1.0032086E0,6.9934076E-1,3.1574697E0,1.999527E0,4.8420736E-1,5.2865577E-1,-1.5772547E0,-1.594891E0,-7.55959E-1,-2.418525E0,-3.5521865E0],"categories":[],"categories_nodes":[],"categories_segments":[],"categories_sizes":[],"default_left":[0,0,0,0,0,0,0,0,0,0,0,0,0,0,0,0,0,0,0,0,0,0,0,0,0,0,0],"id":12,"left_children":[1,3,5,7,9,11,13,-1,15,17,19,-1,21,23,25,-1,-1,-1,-1,-1,-1,-1,-1,-1,-1,-1,-1],"loss_changes":[1.273881E6,2.0679306E5,1.0831231E5,1.000795E5,6.592325E4,7.022589E4,2.1215188E4,0E0,2.462E3,6.473628E4,3.4988145E4,0E0,3.3901562E4,6.7047266E2,1.0797875E4,0E0,0E0,0E0,0E0,0E0,0E0,0E0,0E0,0E0,0E0,0E0,0E0],"parents":[2147483647,0,0,1,1,2,2,3,3,4,4,5,5,6,6,8,8,9,9,10,10,12,12,13,13,14,14],"right_children":[2,4,6,8,10,12,14,-1,16,18,20,-1,22,24,26,-1,-1,-1,-1,-1,-1,-1,-1,-1,-1,-1,-1],"split_conditions":[4.9290335E-1,2.4177618E0,7.2933906E-1,4.0589634E-1,2.8884405E-1,1.8799775E0,2.6557928E1,5.8542624E0,4.2796072E-1,1.8528941E-1,3.2458733E1,1.2577202E0,1.845972E1,2.8332664E1,8.2689756E-1,2.324425E0,1.0032086E0,6.9934076E-1,3.1574697E0,1.999527E0,4.8420736E-1,5.2865577E-1,-1.5772547E0,-1.594891E0,-7.55959E-1,-2.418525E0,-3.5521865E0],"split_indices":[4,5,4,8,4,5,0,0,8,2,0,0,0,7,4,0,0,0,0,0,0,0,0,0,0,0,0],"split_type":[0,0,0,0,0,0,0,0,0,0,0,0,0,0,0,0,0,0,0,0,0,0,0,0,0,0,0],"sum_hessian":[3.1E2,1.42E2,1.68E2,2.6E1,1.16E2,1.02E2,6.6E1,1.6E1,1E1,4.5E1,7.1E1,9E0,9.3E1,1E1,5.6E1,5E0,5E0,1.5E1,3E1,1.8E1,5.3E1,7E0,8.6E1,5E0,5E0,3.1E1,2.5E1],"tree_param":{"num_deleted":"0","num_feature":"9","num_nodes":"27","size_leaf_vector":"1"}},{"base_weights":[-2.4650967E-1,-4.845998E1,3.1633635E1,-9.957685E0,-6.5967445E1,9.9416685E-1,5.7620617E1,-2.8328766E1,3.9379494E1,-7.45826E1,-2.8132551E1,-2.0204788E1,4.053274E1,3.7729107E1,1.06711975E2,-1.6619215E0,1.3888706E-1,2.5217107E-1,1.9136511E0,-1.8834618E0,-2.9752283E0,3.5718453E-1,-1.5316539E0,6.794459E-1,-9.355043E-1,7.375059E-1,3.00692E0,2.2535887E0,4.8726103E-1,2.3526971E0,5.9209538E0],"categories":[],"categories_nodes":[],"categories_segments":[],"categories_sizes":[],"default_left":[0,0,0,0,0,0,0,0,0,0,0,0,0,0,0,0,0,0,0,0,0,0,0,0,0,0,0,0,0,0,0],"id":13,"left_children":[1,3,5,7,9,11,13,15,17,19,21,23,25,27,29,-1,-1,-1,-1,-1,-1,-1,-1,-1,-1,-1,-1,-1,-1,-1,-1],"loss_changes":[4.6726E5,8.090575E4,1.4565172E5,3.6464176E4,2.4954938E4,7.2064164E4,9.264603E4,2.612894E4,7.7794844E3,1.3215094E4,1.6210695E4,2.7052633E4,2.6098773E4,5.6624703E4,5.6324188E4,0E0,0E0,0E0,0E0,0E0,0E0,0E0,0E0,0E0,0E0,0E0,0E0,0E0,0E0,0E0,0E0],"parents":[2147483647,0,0,1,1,2,2,3,3,4,4,5,5,6,6,7,7,8,8,9,9,10,10,11,11,12,12,13,13,14,14],"right_children":[2,4,6,8,10,12,14,16,18,20,22,24,26,28,30,-1,-1,-1,-1,-1,-1,-1,-1,-1,-1,-1,-1,-1,-1,-1,-1],"split_conditions":[3.0680556E0,4.6467148E1,2.825529E-1,9.383037E2,2.6142442E0,3.5225063E1,5.108462E0,2.0659993E0,8.0999424E3,4.1423792E-1,2.7844553E0,3.6291102E-1,9.338854E2,3.8467064E-1,3.7395607E1,-1.6619215E0,1.3888706E-1,2.5217107E-1,1.9136511E0,-1.8834618E0,-2.9752283E0,3.5718453E-1,-1.5316539E0,6.794459E-1,-9.355043E-1,7.375059E-1,3.00692E0,2.2535887E0,4.8726103E-1,2.3526971E0,5.9209538E0],"split_indices":[6,0,2,1,6,7,6,6,3,8,6,8,1,8,7,0,0,0,0,0,0,0,0,0,0,0,0,0,0,0,0],"split_type":[0,0,0,0,0,0,0,0,0,0,0,0,0,0,0,0,0,0,0,0,0,0,0,0,0,0,0,0,0,0,0],"sum_hessian":[3.02E2,1.2E2,1.82E2,3.8E1,8.2E1,8.4E1,9.8E1,2.8E1,1E1,6.6E1,1.6E1,5.5E1,2.9E1,7.1E1,2.7E1,1.5E1,1.3E1,5E0,5E0,4.7E1,1.9E1,6E0,1E1,1.1E1,4.4E1,2.4E1,5E0,2.5E1,4.6E1,2.2E1,5E0],"tree_param":{"num_deleted":"0","num_feature":"9","num_nodes":"31","size_leaf_vector":"1"}},{"base_weights":[3.4380429E0,7.2567444E1,-6.3962944E1,1.4980031E2,2.9363598E1,-4.3362946E1,-8.990536E1,1.0054194E2,2.3097484E2,-2.4263126E1,7.193233E1,-7.489727E1,-1.4209846E1,-3.1776004E0,-7.564649E1,3.4672801E0,2.430208E0,2.3532782E0,9.212183E0,-2.2886434E0,-2.7412462E-1,3.0742323E0,4.844594E-1,-1.2842677E0,-2.7167463E0,-9.0265423E-1,2.857248E-1,-1.8031338E0,-2.689818E0],"categories":[],"categories_nodes":[],"categories_segments":[],"categories_sizes":[],"default_left":[0,0,0,0,0,0,0,0,0,0,0,0,0,0,0,0,0,0,0,0,0,0,0,0,0,0,0,0,0],"id":14,"left_children":[1,3,5,7,9,11,13,15,17,19,21,23,25,-1,27,-1,-1,-1,-1,-1,-1,-1,-1,-1,-1,-1,-1,-1,-1],"loss_changes":[1.4537119E6,5.0946012E5,8.053744E4,1.9669288E5,2.3002795E5,8.167392E4,7.7419375E3,1.2084688E3,2.0805625E5,3.4713074E4,9.375397E4,1.7730906E4,1.8376223E4,0E0,3.3218125E3,0E0,0E0,0E0,0E0,0E0,0E0,0E0,0E0,0E0,0E0,0E0,0E0,0E0,0E0],"parents":[2147483647,0,0,1,1,2,2,3,3,4,4,5,5,6,6,7,7,8,8,9,9,10,10,11,11,12,12,14,14],"right_children":[2,4,6,8,10,12,14,16,18,20,22,24,26,-1,28,-1,-1,-1,-1,-1,-1,-1,-1,-1,-1,-1,-1,-1,-1],"split_conditions":[5.1532954E-1,4.0094075E0,7.329369E-1,3.733086E-1,3.2510896E0,2.8274882E0,3.1583767E0,3.1297058E-1,2.7844553E0,1.5900869E0,3.534349E-1,4.2740273E0,4.5061955E0,-3.1776004E0,8.106706E-1,3.4672801E0,2.430208E0,2.3532782E0,9.212183E0,-2.2886434E0,-2.7412462E-1,3.0742323E0,4.844594E-1,-1.2842677E0,-2.7167463E0,-9.0265423E-1,2.857248E-1,-1.8031338E0,-2.689818E0],"split_indices":[4,5,4,2,6,6,6,4,6,6,4,5,6,0,4,0,0,0,0,0,0,0,0,0,0,0,0,0,0],"split_type":[0,0,0,0,0,0,0,0,0,0,0,0,0,0,0,0,0,0,0,0,0,0,0,0,0,0,0,0,0],"sum_hessian":[3.1E2,1.53E2,1.57E2,5.4E1,9.9E1,8.9E1,6.8E1,3.5E1,1.9E1,4.4E1,5.5E1,4.2E1,4.7E1,2.9E1,3.9E1,1.7E1,1.8E1,7E0,1.2E1,9E0,3.5E1,3.5E1,2E1,1.5E1,2.7E1,2.8E1,1.9E1,2.1E1,1.8E1],"tree_param":{"num_deleted":"0","num_feature":"9","num_nodes":"29","size_leaf_vector":"1"}},{"base_weights":[1.9414341E0,7.806508E1,-5.1825943E1,8.571694E0,6.1231834E1,-2.4157583E1,-9.5404175E1,2.2406423E0,1.0288894E2,1.8738743E1,-3.803387E1,-7.051233E1,-3.1931894E0,1.9606937E0,-3.5503992E-1,4.2627525E0,1.8293475E0,1.7387222E0,-5.7597905E-1,-2.0466971E0,-5.6487316E-1,-1.4418691E0,-2.4461722E0],"categories":[],"categories_nodes":[],"categories_segments":[],"categories_sizes":[],"default_left":[0,0,0,0,0,0,0,0,0,0,0,0,0,0,0,0,0,0,0,0,0,0,0],"id":15,"left_children":[1,3,5,-1,7,9,11,13,15,17,19,21,-1,-1,-1,-1,-1,-1,-1,-1,-1,-1,-1],"loss_changes":[1.3547258E6,4.6139288E5,2.3160728E5,0E0,3.143159E5,7.214192E4,1.3094875E4,4.874623E4,1.1455969E5,4.5749516E4,5.1474484E4,2.5160703E3,0E0,0E0,0E0,0E0,0E0,0E0,0E0,0E0,0E0,0E0,0E0],"parents":[2147483647,0,0,1,1,2,2,4,4,5,5,6,6,7,7,8,8,9,9,10,10,11,11],"right_children":[2,4,6,-1,8,10,12,14,16,18,20,22,-1,-1,-1,-1,-1,-1,-1,-1,-1,-1,-1],"split_conditions":[4.3657145E-1,1.4381317E0,7.329369E-1,8.571694E0,3.0983257E0,2.6486552E0,4.4802597E1,2.155406E1,5.4138384E0,6.060258E-1,3.0680556E0,7.905169E-1,-3.1931894E0,1.9606937E0,-3.5503992E-1,4.2627525E0,1.8293475E0,1.7387222E0,-5.7597905E-1,-2.0466971E0,-5.6487316E-1,-1.4418691E0,-2.4461722E0],"split_indices":[4,5,4,0,6,5,0,0,5,4,6,4,0,0,0,0,0,0,0,0,0,0,0],"split_type":[0,0,0,0,0,0,0,0,0,0,0,0,0,0,0,0,0,0,0,0,0,0,0],"sum_hessian":[3.29E2,1.36E2,1.93E2,9E0,1.27E2,1.19E2,7.4E1,5.3E1,7.4E1,2.9E1,9E1,2.5E1,4.9E1,9E0,4.4E1,3.7E1,3.7E1,1.4E1,1.5E1,3.4E1,5.6E1,1E1,1.5E1],"tree_param":{"num_deleted":"0","num_feature":"9","num_nodes":"23","size_leaf_vector":"1"}},{"base_weights":[4.1032195E0,5.2083168E1,-6.523147E1,-2.6977232E1,7.80824E1,-3.929839E1,-8.6077545E1,-5.5035755E1,-3.908606E-2,1.24886345E2,4.528319E1,-6.2420578E1,-1.2553702E1,-6.609938E1,-2.9458957E0,-2.1878443E0,-9.319556E-1,-1.3834083E0,5.8086735E-1,2.7619953E0,4.9278955E0,2.3660204E0,6.803076E-1,-5.649248E-1,-2.0859473E0,-9.504451E-1,3.4706682E-1,-1.2131522E0,-2.2917833E0],"categories":[],"categories_nodes":[],"categories_segments":[],"categories_sizes":[],"default_left":[0,0,0,0,0,0,0,0,0,0,0,0,0,0,0,0,0,0,0,0,0,0,0,0,0,0,0,0,0],"id":16,"left_children":[1,3,5,7,9,11,13,15,17,19,21,23,25,27,-1,-1,-1,-1,-1,-1,-1,-1,-1,-1,-1,-1,-1,-1,-1],"loss_changes":[1.0978734E6,4.029313E5,6.9597375E4,3.7033688E4,2.200075E5,3.7556188E4,1.1424125E4,8.0268047E3,2.4134719E4,6.2414812E4,6.5021234E4,8.918664E3,1.420909E4,5.097922E3,0E0,0E0,0E0,0E0,0E0,0E0,0E0,0E0,0E0,0E0,0E0,0E0,0E0,0E0,0E0],"parents":[2147483647,0,0,1,1,2,2,3,3,4,4,5,5,6,6,7,7,8,8,9,9,10,10,11,11,12,12,13,13],"right_children":[2,4,6,8,10,12,14,16,18,20,22,24,26,28,-1,-1,-1,-1,-1,-1,-1,-1,-1,-1,-1,-1,-1,-1,-1],"split_conditions":[5.5386215E-1,2.2477365E0,7.2933906E-1,2.871206E1,3.1085688E-1,3.361682E0,4.546527E1,1.5319494E0,1.562601E-1,4.765777E0,3.850631E-1,2.3515741E1,2.3472904E-1,3.7151197E-1,-2.9458957E0,-2.1878443E0,-9.319556E-1,-1.3834083E0,5.8086735E-1,2.7619953E0,4.9278955E0,2.3660204E0,6.803076E-1,-5.649248E-1,-2.0859473E0,-9.504451E-1,3.4706682E-1,-1.2131522E0,-2.2917833E0],"split_indices":[4,6,4,7,4,6,0,6,2,6,8,0,2,8,0,0,0,0,0,0,0,0,0,0,0,0,0,0,0],"split_type":[0,0,0,0,0,0,0,0,0,0,0,0,0,0,0,0,0,0,0,0,0,0,0,0,0,0,0,0,0],"sum_hessian":[3.28E2,1.94E2,1.34E2,4.8E1,1.46E2,6.1E1,7.3E1,2.3E1,2.5E1,5.9E1,8.7E1,3.2E1,2.9E1,3E1,4.3E1,1.2E1,1.1E1,7E0,1.8E1,3.4E1,2.5E1,3.4E1,5.3E1,5E0,2.7E1,1.6E1,1.3E1,1E1,2E1],"tree_param":{"num_deleted":"0","num_feature":"9","num_nodes":"29","size_leaf_vector":"1"}},{"base_weights":[5.5103693E0,7.8882095E1,-4.7032345E1,2.0980225E2,5.2915245E1,-4.4820614E0,-7.044988E1,2.3164759E0,2.8952023E2,-1.5106658E0,8.846439E1,3.603531E1,-2.8693104E1,-9.807236E1,-5.755397E1,4.890813E0,1.0250367E1,1.365094E0,-5.0153476E-1,3.4093568E0,1.1862695E0,-4.7750335E-2,1.4785452E0,-1.979153E0,-3.4460145E-1,-1.2814925E0,-3.2052698E0,2.2600247E-1,-1.8455405E0],"categories":[],"categories_nodes":[],"categories_segments":[],"categories_sizes":[],"default_left":[0,0,0,0,0,0,0,0,0,0,0,0,0,0,0,0,0,0,0,0,0,0,0,0,0,0,0,0,0],"id":17,"left_children":[1,3,5,7,9,11,13,-1,15,17,19,21,23,25,27,-1,-1,-1,-1,-1,-1,-1,-1,-1,-1,-1,-1,-1,-1],"loss_changes":[1.3028958E6,4.68237E5,1.9597884E5,2.2073962E5,2.3037506E5,7.06826E4,3.95935E4,0E0,3.6660125E4,3.5077848E4,8.420144E4,1.35395E4,2.8105832E4,1.43679375E4,2.3426844E4,0E0,0E0,0E0,0E0,0E0,0E0,0E0,0E0,0E0,0E0,0E0,0E0,0E0,0E0],"parents":[2147483647,0,0,1,1,2,2,3,3,4,4,5,5,6,6,8,8,9,9,10,10,11,11,12,12,13,13,14,14],"right_children":[2,4,6,8,10,12,14,-1,16,18,20,22,24,26,28,-1,-1,-1,-1,-1,-1,-1,-1,-1,-1,-1,-1,-1,-1],"split_conditions":[4.3446726E-1,2.1640518E0,5.9688073E-1,4.3357895E1,3.2510896E0,4.591482E0,2.0326576E0,2.3164759E0,2.7844553E0,4.0347633E0,6.529881E0,2.305892E0,2.3459172E0,2.1032995E1,1.572362E0,4.890813E0,1.0250367E1,1.365094E0,-5.0153476E-1,3.4093568E0,1.1862695E0,-4.7750335E-2,1.4785452E0,-1.979153E0,-3.4460145E-1,-1.2814925E0,-3.2052698E0,2.2600247E-1,-1.8455405E0],"split_indices":[4,5,4,0,6,5,6,0,6,5,5,6,6,0,5,0,0,0,0,0,0,0,0,0,0,0,0,0,0],"split_type":[0,0,0,0,0,0,0,0,0,0,0,0,0,0,0,0,0,0,0,0,0,0,0,0,0,0,0,0,0],"sum_hessian":[3.36E2,1.4E2,1.96E2,2.2E1,1.18E2,7E1,1.26E2,9E0,1.3E1,4.7E1,7.1E1,2.6E1,4.4E1,3.8E1,8.8E1,5E0,8E0,1.1E1,3.6E1,4.6E1,2.5E1,7E0,1.9E1,1.3E1,3.1E1,6E0,3.2E1,5E0,8.3E1],"tree_param":{"num_deleted":"0","num_feature":"9","num_nodes":"29","size_leaf_vector":"1"}},{"base_weights":[1.2254468E0,6.227279E1,-5.773579E1,-1.3800769E1,9.169302E1,-9.277554E0,-7.202499E1,1.5891186E0,-2.4600983E1,1.2770315E2,5.815009E1,-3.2854748E1,2.593994E1,-3.9483437E1,-8.216595E1,-1.321134E0,1.9717322E-1,1.5438594E0,4.219685E0,4.2625788E-1,2.2402866E0,-8.498497E-2,-1.580395E0,-1.6438721E-1,1.4544766E0,-1.6620418E0,-4.687979E-1,-1.588458E0,-2.686162E0],"categories":[],"categories_nodes":[],"categories_segments":[],"categories_sizes":[],"default_left":[0,0,0,0,0,0,0,0,0,0,0,0,0,0,0,0,0,0,0,0,0,0,0,0,0,0,0,0,0],"id":18,"left_children":[1,3,5,7,9,11,13,-1,15,17,19,21,23,25,27,-1,-1,-1,-1,-1,-1,-1,-1,-1,-1,-1,-1,-1,-1],"loss_changes":[1.2381989E6,3.795053E5,1.20506125E5,3.591782E4,1.3993425E5,3.4895836E4,4.1304938E4,0E0,2.5738117E4,5.003775E4,4.613997E4,1.4729891E4,1.2306818E4,1.2045129E4,1.7229812E4,0E0,0E0,0E0,0E0,0E0,0E0,0E0,0E0,0E0,0E0,0E0,0E0,0E0,0E0],"parents":[2147483647,0,0,1,1,2,2,3,3,4,4,5,5,6,6,8,8,9,9,10,10,11,11,12,12,13,13,14,14],"right_children":[2,4,6,8,10,12,14,-1,16,18,20,22,24,26,28,-1,-1,-1,-1,-1,-1,-1,-1,-1,-1,-1,-1,-1,-1],"split_conditions":[5.179077E-1,2.4259076E0,5.9688073E-1,2.155406E1,3.0547777E-1,4.172264E0,3.7000737E-1,1.5891186E0,3.2548798E1,1.3589539E-1,1.8677303E-1,5.4019634E1,1.97386E-1,4.106733E0,3.976397E1,-1.321134E0,1.9717322E-1,1.5438594E0,4.219685E0,4.2625788E-1,2.2402866E0,-8.498497E-2,-1.580395E0,-1.6438721E-1,1.4544766E0,-1.6620418E0,-4.687979E-1,-1.588458E0,-2.686162E0],"split_indices":[4,6,4,0,4,6,8,0,7,2,2,0,2,6,0,0,0,0,0,0,0,0,0,0,0,0,0,0,0],"split_type":[0,0,0,0,0,0,0,0,0,0,0,0,0,0,0,0,0,0,0,0,0,0,0,0,0,0,0,0,0],"sum_hessian":[3.42E2,1.68E2,1.74E2,4.7E1,1.21E2,4E1,1.34E2,6E0,4.1E1,5.7E1,6.4E1,2.4E1,1.6E1,3.3E1,1.01E2,2.5E1,1.6E1,9E0,4.8E1,1.8E1,4.6E1,1E1,1.4E1,7E0,9E0,1.9E1,1.4E1,2.2E1,7.9E1],"tree_param":{"num_deleted":"0","num_feature":"9","num_nodes":"29","size_leaf_vector":"1"}},{"base_weights":[1.1819468E0,5.414252E1,-5.7953297E1,1.8864077E1,1.1768326E2,-4.1648583E0,-6.500933E1,-2.277293E1,4.444382E1,9.622266E1,7.808745E0,-9.217266E-1,8.412913E0,-8.418297E1,-4.7116413E1,-1.9234432E0,-2.2104923E-1,3.2339668E-1,1.7346921E0,3.9608564E0,1.5681225E0,-4.5729954E-2,4.4446445E-1,-1.324271E0,-2.73505E0,-8.008758E-1,-1.9216696E0],"categories":[],"categories_nodes":[],"categories_segments":[],"categories_sizes":[],"default_left":[0,0,0,0,0,0,0,0,0,0,0,0,0,0,0,0,0,0,0,0,0,0,0,0,0,0,0],"id":19,"left_children":[1,3,5,7,9,11,13,15,17,19,-1,-1,21,23,25,-1,-1,-1,-1,-1,-1,-1,-1,-1,-1,-1,-1],"loss_changes":[9.677434E5,3.6316234E5,5.5140375E4,1.1390911E5,1.5245719E5,6.2717393E3,4.0288625E4,2.5637945E4,2.9102258E4,7.493125E4,0E0,0E0,8.498273E2,1.3035844E4,2.2156766E4,0E0,0E0,0E0,0E0,0E0,0E0,0E0,0E0,0E0,0E0,0E0,0E0],"parents":[2147483647,0,0,1,1,2,2,3,3,4,4,5,5,6,6,7,7,8,8,9,9,12,12,13,13,14,14],"right_children":[2,4,6,8,10,12,14,16,18,20,-1,-1,22,24,26,-1,-1,-1,-1,-1,-1,-1,-1,-1,-1,-1,-1],"split_conditions":[5.2226377E-1,4.129417E0,2.4027834E1,2.2477365E0,4.6690857E-1,2.9692602E1,3.2785435E0,1.3787397E0,2.0937093E-1,3.2423934E-1,7.808745E0,-9.217266E-1,5.9688073E-1,5.773934E-1,7.195558E-1,-1.9234432E0,-2.2104923E-1,3.2339668E-1,1.7346921E0,3.9608564E0,1.5681225E0,-4.5729954E-2,4.4446445E-1,-1.324271E0,-2.73505E0,-8.008758E-1,-1.9216696E0],"split_indices":[4,6,0,6,2,7,6,6,2,4,0,0,4,4,4,0,0,0,0,0,0,0,0,0,0,0,0],"split_type":[0,0,0,0,0,0,0,0,0,0,0,0,0,0,0,0,0,0,0,0,0,0,0,0,0,0,0],"sum_hessian":[3.07E2,1.62E2,1.45E2,1.05E2,5.7E1,1.7E1,1.28E2,4E1,6.5E1,5.1E1,6E0,5E0,1.2E1,6E1,6.8E1,1E1,3E1,1.9E1,4.6E1,2.7E1,2.4E1,5E0,7E0,1E1,5E1,3.2E1,3.6E1],"tree_param":{"num_deleted":"0","num_feature":"9","num_nodes":"27","size_leaf_vector":"1"}},{"base_weights":[-5.86498E0,4.360011E1,-5.077409E1,8.8937256E1,3.0836835E0,-2.9525688E1,-7.4512695E1,1.5482057E1,1.1186185E2,-4.5512638E1,3.6373833E1,-6.917411E1,-1.4943599E1,-2.7046957E0,-6.1553185E1,-2.1839216E-1,1.1008993E0,5.0653567E0,2.7356467E0,-2.3074002E0,-6.274745E-1,1.5394624E0,5.634472E-1,-1.1264186E0,-2.5385063E0,4.191637E-1,-8.8174015E-1,-1.2488801E0,-2.0804303E0],"categories":[],"categories_nodes":[],"categories_segments":[],"categories_sizes":[],"default_left":[0,0,0,0,0,0,0,0,0,0,0,0,0,0,0,0,0,0,0,0,0,0,0,0,0,0,0,0,0],"id":20,"left_children":[1,3,5,7,9,11,13,15,17,19,21,23,25,-1,27,-1,-1,-1,-1,-1,-1,-1,-1,-1,-1,-1,-1,-1,-1],"loss_changes":[7.4195106E5,2.9179178E5,8.607025E4,1.24561625E5,1.3916658E5,5.3312203E4,1.10734375E4,9.442197E3,5.174975E4,2.5422836E4,1.244118E4,9.031773E3,2.9654492E4,0E0,4.5662188E3,0E0,0E0,0E0,0E0,0E0,0E0,0E0,0E0,0E0,0E0,0E0,0E0,0E0,0E0],"parents":[2147483647,0,0,1,1,2,2,3,3,4,4,5,5,6,6,7,7,8,8,9,9,10,10,11,11,12,12,14,14],"right_children":[2,4,6,8,10,12,14,16,18,20,22,24,26,-1,28,-1,-1,-1,-1,-1,-1,-1,-1,-1,-1,-1,-1,-1,-1],"split_conditions":[5.127369E-1,5.260949E0,7.329369E-1,2.1911001E0,3.0296826E0,2.1610515E0,3.1725607E0,7.896274E3,2.1333244E0,1.7681483E0,3.3122092E-1,5.298656E0,3.42493E0,-2.7046957E0,7.905169E-1,-2.1839216E-1,1.1008993E0,5.0653567E0,2.7356467E0,-2.3074002E0,-6.274745E-1,1.5394624E0,5.634472E-1,-1.1264186E0,-2.5385063E0,4.191637E-1,-8.8174015E-1,-1.2488801E0,-2.0804303E0],"split_indices":[4,5,4,6,6,6,6,3,5,6,4,5,5,0,4,0,0,0,0,0,0,0,0,0,0,0,0,0,0],"split_type":[0,0,0,0,0,0,0,0,0,0,0,0,0,0,0,0,0,0,0,0,0,0,0,0,0,0,0,0,0],"sum_hessian":[3.32E2,1.58E2,1.74E2,7.4E1,8.4E1,9.3E1,8.1E1,1.8E1,5.6E1,3.4E1,5E1,2.4E1,6.9E1,3.4E1,4.7E1,9E0,9E0,1.3E1,4.3E1,1.4E1,2E1,2.6E1,2.4E1,9E0,1.5E1,2.3E1,4.6E1,1.5E1,3.2E1],"tree_param":{"num_deleted":"0","num_feature":"9","num_nodes":"29","size_leaf_vector":"1"}},{"base_weights":[1.7769067E0,5.695211E1,-5.027338E1,2.1129008E2,3.436266E1,-1.6572498E1,-6.938297E1,2.7134756E2,3.0318787E0,6.2682E1,-9.1338503E-1,5.024494E1,-2.963485E1,-5.915835E1,-2.63211E0,9.638309E0,4.786463E0,2.163699E0,3.7038726E-1,2.4535803E-1,-6.670315E-1,2.3412259E0,4.2219594E-1,7.6975244E-1,-1.1877781E0,-1.1282464E0,-2.0218174E0],"categories":[],"categories_nodes":[],"categories_segments":[],"categories_sizes":[],"default_left":[0,0,0,0,0,0,0,0,0,0,0,0,0,0,0,0,0,0,0,0,0,0,0,0,0,0,0],"id":21,"left_children":[1,3,5,7,9,11,13,15,-1,17,19,21,23,25,-1,-1,-1,-1,-1,-1,-1,-1,-1,-1,-1,-1,-1],"loss_changes":[9.821761E5,5.714811E5,1.1219506E5,1.1159275E5,1.4591102E5,5.8220336E4,1.5826375E4,2.13025E4,0E0,3.760275E4,1.2976104E4,9.960494E3,3.1298848E4,1.0775219E4,0E0,0E0,0E0,0E0,0E0,0E0,0E0,0E0,0E0,0E0,0E0,0E0,0E0],"parents":[2147483647,0,0,1,1,2,2,3,3,4,4,5,5,6,6,7,7,9,9,10,10,11,11,12,12,13,13],"right_children":[2,4,6,8,10,12,14,16,-1,18,20,22,24,26,-1,-1,-1,-1,-1,-1,-1,-1,-1,-1,-1,-1,-1],"split_conditions":[4.9290335E-1,1.990211E0,6.595628E-1,2.6492837E-1,6.123005E0,2.1911905E0,8.106706E-1,1.7229319E0,3.0318787E0,4.3503422E-1,8.62876E0,3.987745E-1,2.3515741E1,3.7000737E-1,-2.63211E0,9.638309E0,4.786463E0,2.163699E0,3.7038726E-1,2.4535803E-1,-6.670315E-1,2.3412259E0,4.2219594E-1,7.6975244E-1,-1.1877781E0,-1.1282464E0,-2.0218174E0],"split_indices":[4,5,4,4,5,5,4,5,0,8,5,8,0,8,0,0,0,0,0,0,0,0,0,0,0,0,0],"split_type":[0,0,0,0,0,0,0,0,0,0,0,0,0,0,0,0,0,0,0,0,0,0,0,0,0,0,0],"sum_hessian":[3.4E2,1.65E2,1.75E2,2E1,1.45E2,6.4E1,1.11E2,1.2E1,8E0,8E1,6.5E1,1E1,5.4E1,7.4E1,3.7E1,7E0,5E0,6.7E1,1.3E1,4.6E1,1.9E1,5E0,5E0,8E0,4.6E1,2.2E1,5.2E1],"tree_param":{"num_deleted":"0","num_feature":"9","num_nodes":"27","size_leaf_vector":"1"}},{"base_weights":[6.021941E-1,-4.1058067E1,3.2404156E1,-1.2487221E1,-5.5977142E1,2.0891162E2,1.9030527E1,-4.5399944E1,2.915087E0,-2.108685E1,-6.524713E1,2.1604238E0,1.069864E1,-1.9946793E1,4.133258E1,-1.8893389E0,-1.6815758E-1,8.7716824E-1,-3.1103653E-1,1.6547844E-1,-1.9502141E0,-2.3814654E0,-1.480451E0,-1.7419197E-1,-1.4003311E0,1.98327E0,6.306433E-2],"categories":[],"categories_nodes":[],"categories_segments":[],"categories_sizes":[],"default_left":[0,0,0,0,0,0,0,0,0,0,0,0,0,0,0,0,0,0,0,0,0,0,0,0,0,0,0],"id":22,"left_children":[1,3,5,7,9,11,13,15,17,19,21,-1,-1,23,25,-1,-1,-1,-1,-1,-1,-1,-1,-1,-1,-1,-1],"loss_changes":[4.3456544E5,5.9827906E4,4.3508344E5,2.5479363E4,2.87025E4,2.3718812E5,1.520784E5,1.0838496E4,1.2541399E4,2.4895627E4,1.2486625E4,0E0,0E0,2.3919531E4,1.0775122E5,0E0,0E0,0E0,0E0,0E0,0E0,0E0,0E0,0E0,0E0,0E0,0E0],"parents":[2147483647,0,0,1,1,2,2,3,3,4,4,5,5,6,6,7,7,8,8,9,9,10,10,13,13,14,14],"right_children":[2,4,6,8,10,12,14,16,18,20,22,-1,-1,24,26,-1,-1,-1,-1,-1,-1,-1,-1,-1,-1,-1,-1],"split_conditions":[3.1583767E0,4.4083977E1,1.4381317E0,1.7856816E0,3.0370944E0,6.497182E1,2.2182927E-1,3.219411E1,3.9104264E0,4.1014528E-1,2.0993981E0,2.1604238E0,1.069864E1,7.0108232E0,5.6638455E0,-1.8893389E0,-1.6815758E-1,8.7716824E-1,-3.1103653E-1,1.6547844E-1,-1.9502141E0,-2.3814654E0,-1.480451E0,-1.7419197E-1,-1.4003311E0,1.98327E0,6.306433E-2],"split_indices":[6,0,5,6,5,0,2,7,5,8,6,0,0,5,5,0,0,0,0,0,0,0,0,0,0,0,0],"split_type":[0,0,0,0,0,0,0,0,0,0,0,0,0,0,0,0,0,0,0,0,0,0,0,0,0,0,0],"sum_hessian":[3.26E2,1.41E2,1.85E2,4.9E1,9.2E1,1.2E1,1.73E2,1.5E1,3.4E1,2E1,7.2E1,7E0,5E0,6.3E1,1.1E2,1E1,5E0,1.1E1,2.3E1,1.3E1,7E0,3.6E1,3.6E1,4.2E1,2.1E1,6.7E1,4.3E1],"tree_param":{"num_deleted":"0","num_feature":"9","num_nodes":"27","size_leaf_vector":"1"}},{"base_weights":[-5.944524E0,4.37601E1,-5.4143482E1,1.4960801E1,9.6135185E1,-3.2620224E1,-6.599801E1,4.928905E1,-1.8390982E1,1.1645107E2,3.5527176E1,-5.0051373E1,-2.9350114E0,-2.5961328E0,-5.580655E1,3.746155E-1,2.250101E0,-1.7187074E0,-2.8892135E-2,3.9707222E0,1.7443411E0,1.7995667E0,5.6866753E-1,-1.0117984E0,-1.9637917E0,7.2075313E-1,-5.375179E-1,-1.404493E0,-2.450213E0],"categories":[],"categories_nodes":[],"categories_segments":[],"categories_sizes":[],"default_left":[0,0,0,0,0,0,0,0,0,0,0,0,0,0,0,0,0,0,0,0,0,0,0,0,0,0,0,0,0],"id":23,"left_children":[1,3,5,7,9,11,13,15,17,19,21,23,25,-1,27,-1,-1,-1,-1,-1,-1,-1,-1,-1,-1,-1,-1,-1,-1],"loss_changes":[7.977455E5,2.459326E5,4.0966188E4,1.2341198E5,6.7277E4,3.1934297E4,1.7776844E4,4.9218305E4,3.723055E4,3.2182125E4,5.3471797E3,7.601242E3,1.0124562E4,0E0,1.3616234E4,0E0,0E0,0E0,0E0,0E0,0E0,0E0,0E0,0E0,0E0,0E0,0E0,0E0,0E0],"parents":[2147483647,0,0,1,1,2,2,3,3,4,4,5,5,6,6,7,7,8,8,9,9,10,10,11,11,12,12,14,14],"right_children":[2,4,6,8,10,12,14,16,18,20,22,24,26,-1,28,-1,-1,-1,-1,-1,-1,-1,-1,-1,-1,-1,-1,-1,-1],"split_conditions":[5.626479E-1,4.5816402E0,6.9598603E-1,5.4855857E0,4.4829068E-1,3.8713846E0,2.4476466E0,2.3862946E0,2.119588E0,7.569111E0,3.1880753E0,5.4405155E0,4.2494006E0,-2.5961328E0,8.5763943E-1,3.746155E-1,2.250101E0,-1.7187074E0,-2.8892135E-2,3.9707222E0,1.7443411E0,1.7995667E0,5.6866753E-1,-1.0117984E0,-1.9637917E0,7.2075313E-1,-5.375179E-1,-1.404493E0,-2.450213E0],"split_indices":[4,6,4,5,4,6,6,6,6,5,5,5,5,0,4,0,0,0,0,0,0,0,0,0,0,0,0,0,0],"split_type":[0,0,0,0,0,0,0,0,0,0,0,0,0,0,0,0,0,0,0,0,0,0,0,0,0,0,0,0,0],"sum_hessian":[3.31E2,1.63E2,1.68E2,1.06E2,5.7E1,6.1E1,1.07E2,5.2E1,5.4E1,4.2E1,1.5E1,3.8E1,2.3E1,3.3E1,7.4E1,2.2E1,3E1,1.6E1,3.8E1,3.2E1,1E1,5E0,1E1,2E1,1.8E1,8E0,1.5E1,5.7E1,1.7E1],"tree_param":{"num_deleted":"0","num_feature":"9","num_nodes":"29","size_leaf_vector":"1"}},{"base_weights":[3.9666498E0,5.485829E1,-4.664054E1,9.898492E1,1.924838E1,-1.6009577E1,-6.223058E1,1.3097346E2,4.593391E1,4.340098E1,5.6434765E0,1.4223318E0,-2.8888885E1,-3.704762E1,-7.573169E1,5.180734E0,2.9843092E0,1.7365583E0,2.1973999E-1,1.9900321E0,4.466309E-1,-1.12101704E-1,1.1019527E0,-2.0343016E-1,-1.2941756E0,-1.01790525E-1,-1.3606478E0,-1.924139E0,-2.603605E0],"categories":[],"categories_nodes":[],"categories_segments":[],"categories_sizes":[],"default_left":[0,0,0,0,0,0,0,0,0,0,0,0,0,0,0,0,0,0,0,0,0,0,0,0,0,0,0,0,0],"id":24,"left_children":[1,3,5,7,9,11,13,15,17,19,21,-1,23,25,27,-1,-1,-1,-1,-1,-1,-1,-1,-1,-1,-1,-1,-1,-1],"loss_changes":[8.473171E5,2.5579412E5,7.779669E4,1.1786481E5,2.9985207E4,4.792786E4,3.425297E4,4.1946812E4,1.2956918E4,2.0590555E4,1.7634443E4,0E0,1.4829086E4,1.1028777E4,3.4040625E3,0E0,0E0,0E0,0E0,0E0,0E0,0E0,0E0,0E0,0E0,0E0,0E0,0E0,0E0],"parents":[2147483647,0,0,1,1,2,2,3,3,4,4,5,5,6,6,7,7,8,8,9,9,10,10,12,12,13,13,14,14],"right_children":[2,4,6,8,10,12,14,16,18,20,22,-1,24,26,28,-1,-1,-1,-1,-1,-1,-1,-1,-1,-1,-1,-1,-1,-1],"split_conditions":[5.2226377E-1,4.8042555E0,6.595628E-1,4.0185463E-1,6.376122E0,2.094006E0,3.8013315E-1,2.7374244E-1,4.3446726E-1,3.7300533E-1,8.578847E3,1.4223318E0,5.0023856E0,1.845972E1,7.993084E-1,5.180734E0,2.9843092E0,1.7365583E0,2.1973999E-1,1.9900321E0,4.466309E-1,-1.12101704E-1,1.1019527E0,-2.0343016E-1,-1.2941756E0,-1.01790525E-1,-1.3606478E0,-1.924139E0,-2.603605E0],"split_indices":[4,5,4,8,5,5,8,4,4,4,3,0,5,0,4,0,0,0,0,0,0,0,0,0,0,0,0,0,0],"split_type":[0,0,0,0,0,0,0,0,0,0,0,0,0,0,0,0,0,0,0,0,0,0,0,0,0,0,0,0,0],"sum_hessian":[3.27E2,1.63E2,1.64E2,7.2E1,9.1E1,5.6E1,1.08E2,4.4E1,2.8E1,3.2E1,5.9E1,9E0,4.7E1,3.9E1,6.9E1,1.7E1,2.7E1,2.1E1,7E0,1.7E1,1.5E1,4.6E1,1.3E1,1.9E1,2.8E1,8E0,3.1E1,3.7E1,3.2E1],"tree_param":{"num_deleted":"0","num_feature":"9","num_nodes":"29","size_leaf_vector":"1"}},{"base_weights":[-4.6367517E0,5.7672436E1,-3.563089E1,2.0175172E2,4.140952E1,-8.482617E0,-6.0154175E1,2.8175783E0,8.278716E0,-2.8134885E0,7.8447365E1,-4.0973442E1,8.568554E0,-1.5408654E1,-6.658324E1,-1.2249037E0,2.5693575E-1,2.8382556E0,9.942272E-1,3.610702E-1,-1.8315775E0,8.709024E-1,-1.1695657E-1,5.747415E-1,-1.3327096E0,-2.5818331E0,-1.7415032E0],"categories":[],"categories_nodes":[],"categories_segments":[],"categories_sizes":[],"default_left":[0,0,0,0,0,0,0,0,0,0,0,0,0,0,0,0,0,0,0,0,0,0,0,0,0,0,0],"id":25,"left_children":[1,3,5,7,9,11,13,-1,-1,15,17,19,21,23,25,-1,-1,-1,-1,-1,-1,-1,-1,-1,-1,-1,-1],"loss_changes":[6.451508E5,2.5173272E5,1.479546E5,6.2097938E4,1.6565188E5,5.9630117E4,3.2630781E4,0E0,0E0,2.0680041E4,3.7134594E4,4.0117266E4,1.8225246E4,1.6898568E4,1.1955844E4,0E0,0E0,0E0,0E0,0E0,0E0,0E0,0E0,0E0,0E0,0E0,0E0],"parents":[2147483647,0,0,1,1,2,2,3,3,4,4,5,5,6,6,9,9,10,10,11,11,12,12,13,13,14,14],"right_children":[2,4,6,8,10,12,14,-1,-1,16,18,20,22,24,26,-1,-1,-1,-1,-1,-1,-1,-1,-1,-1,-1,-1],"split_conditions":[3.8770097E-1,1.7229319E0,6.335931E-1,2.4755445E0,3.2510896E0,2.533781E0,1.9179943E1,2.8175783E0,8.278716E0,1.3424647E0,3.330868E-1,3.3903265E0,4.669681E0,3.2512847E-1,2.210136E0,-1.2249037E0,2.5693575E-1,2.8382556E0,9.942272E-1,3.610702E-1,-1.8315775E0,8.709024E-1,-1.1695657E-1,5.747415E-1,-1.3327096E0,-2.5818331E0,-1.7415032E0],"split_indices":[4,5,4,6,6,6,0,0,0,6,4,5,5,2,6,0,0,0,0,0,0,0,0,0,0,0,0],"split_type":[0,0,0,0,0,0,0,0,0,0,0,0,0,0,0,0,0,0,0,0,0,0,0,0,0,0,0],"sum_hessian":[3.32E2,1.1E2,2.22E2,1E1,1E2,1.06E2,1.16E2,5E0,5E0,4.6E1,5.4E1,3.6E1,7E1,1.5E1,1.01E2,1E1,3.6E1,3.9E1,1.5E1,1E1,2.6E1,2.6E1,4.4E1,7E0,8E0,2.8E1,7.3E1],"tree_param":{"num_deleted":"0","num_feature":"9","num_nodes":"27","size_leaf_vector":"1"}},{"base_weights":[2.7983902E0,-4.8702156E1,2.3816162E1,-2.3402414E0,-6.912138E1,7.171032E1,-1.0336928E0,-1.1351633E0,1.3901378E1,-2.6771567E0,-5.887988E1,1.0218739E2,9.28319E0,-1.0916971E1,3.3037148E1,1.5158342E0,-3.190928E-1,-7.809543E-1,-2.1100962E0,2.479734E0,6.7288485E0,8.2897764E-1,-6.475835E-1,8.147045E-1,-5.165992E-1,1.08163826E-1,1.8680393E0],"categories":[],"categories_nodes":[],"categories_segments":[],"categories_sizes":[],"default_left":[0,0,0,0,0,0,0,0,0,0,0,0,0,0,0,0,0,0,0,0,0,0,0,0,0,0,0],"id":26,"left_children":[1,3,5,7,9,11,13,-1,15,-1,17,19,21,23,25,-1,-1,-1,-1,-1,-1,-1,-1,-1,-1,-1,-1],"loss_changes":[3.6593747E5,9.261161E4,2.8571388E5,1.8399414E4,8.754219E3,1.5506322E5,5.3900766E4,0E0,2.0309945E4,0E0,1.6231859E4,1.12616375E5,1.6456672E4,3.022496E4,3.0746082E4,0E0,0E0,0E0,0E0,0E0,0E0,0E0,0E0,0E0,0E0,0E0,0E0],"parents":[2147483647,0,0,1,1,2,2,3,3,4,4,5,5,6,6,8,8,10,10,11,11,12,12,13,13,14,14],"right_children":[2,4,6,8,10,12,14,-1,16,-1,18,20,22,24,26,-1,-1,-1,-1,-1,-1,-1,-1,-1,-1,-1,-1],"split_conditions":[2.3862946E0,3.29923E0,3.9841077E0,1.7136732E-1,1.4335222E0,4.1516736E-1,5.2087893E0,-1.1351633E0,1.9613996E0,-2.6771567E0,6.032137E0,4.42057E-1,3.2640168E-1,3.5984075E-1,3.055115E-1,1.5158342E0,-3.190928E-1,-7.809543E-1,-2.1100962E0,2.479734E0,6.7288485E0,8.2897764E-1,-6.475835E-1,8.147045E-1,-5.165992E-1,1.08163826E-1,1.8680393E0],"split_indices":[6,5,5,2,6,8,6,0,5,0,5,2,2,8,2,0,0,0,0,0,0,0,0,0,0,0,0],"split_type":[0,0,0,0,0,0,0,0,0,0,0,0,0,0,0,0,0,0,0,0,0,0,0,0,0,0,0],"sum_hessian":[3.36E2,9.7E1,2.39E2,3E1,6.7E1,8.1E1,1.58E2,9E0,2.1E1,2E1,4.7E1,5.4E1,2.7E1,1.23E2,3.5E1,8E0,1.3E1,1.3E1,3.4E1,4.8E1,6E0,1.7E1,1E1,1.7E1,1.06E2,1.8E1,1.7E1],"tree_param":{"num_deleted":"0","num_feature":"9","num_nodes":"27","size_leaf_vector":"1"}},{"base_weights":[-3.9838214E0,3.4052265E1,-5.3527794E1,-2.1474157E1,5.937348E1,-3.433339E1,-6.700883E1,9.562369E0,-3.201909E1,8.3971985E1,3.3201347E1,-5.7183685E1,-1.3702764E1,-4.7471138E1,-2.3246133E0,-6.643541E-1,1.4400811E0,-1.01573095E-1,-1.2440761E0,1.3480637E0,3.0522187E0,1.8465499E0,4.0531173E-1,-8.0634224E-1,-2.0507774E0,1.0094838E0,-6.727802E-1,-1.808376E0,-1.1001427E0],"categories":[],"categories_nodes":[],"categories_segments":[],"categories_sizes":[],"default_left":[0,0,0,0,0,0,0,0,0,0,0,0,0,0,0,0,0,0,0,0,0,0,0,0,0,0,0,0,0],"id":27,"left_children":[1,3,5,7,9,11,13,15,17,19,21,23,25,27,-1,-1,-1,-1,-1,-1,-1,-1,-1,-1,-1,-1,-1,-1,-1],"loss_changes":[6.726903E5,2.8528666E5,3.7806188E4,2.12522E4,8.6698375E4,3.0329172E4,1.4745344E4,2.1783688E4,1.2847379E4,4.467422E4,3.7686555E4,8.660836E3,1.5624852E4,2.4915078E3,0E0,0E0,0E0,0E0,0E0,0E0,0E0,0E0,0E0,0E0,0E0,0E0,0E0,0E0,0E0],"parents":[2147483647,0,0,1,1,2,2,3,3,4,4,5,5,6,6,7,7,8,8,9,9,10,10,11,11,12,12,13,13],"right_children":[2,4,6,8,10,12,14,16,18,20,22,24,26,28,-1,-1,-1,-1,-1,-1,-1,-1,-1,-1,-1,-1,-1,-1,-1],"split_conditions":[5.911347E-1,2.8274882E0,7.351627E-1,3.1727518E1,3.7646532E-1,2.977134E0,4.509143E1,2.971855E-1,2.4390987E-1,2.2182927E-1,3.8573936E-1,4.8479424E1,2.1032995E1,3.7907765E0,-2.3246133E0,-6.643541E-1,1.4400811E0,-1.01573095E-1,-1.2440761E0,1.3480637E0,3.0522187E0,1.8465499E0,4.0531173E-1,-8.0634224E-1,-2.0507774E0,1.0094838E0,-6.727802E-1,-1.808376E0,-1.1001427E0],"split_indices":[4,6,4,0,4,6,0,2,4,2,8,0,0,6,0,0,0,0,0,0,0,0,0,0,0,0,0,0,0],"split_type":[0,0,0,0,0,0,0,0,0,0,0,0,0,0,0,0,0,0,0,0,0,0,0,0,0,0,0,0,0],"sum_hessian":[3.55E2,2.01E2,1.54E2,6.3E1,1.38E2,6.5E1,8.9E1,1.6E1,4.7E1,7E1,6.8E1,3E1,3.5E1,3.3E1,5.6E1,9E0,7E0,1.2E1,3.5E1,2.3E1,4.7E1,2.7E1,4.1E1,9E0,2.1E1,5E0,3E1,1.3E1,2E1],"tree_param":{"num_deleted":"0","num_feature":"9","num_nodes":"29","size_leaf_vector":"1"}},{"base_weights":[2.2058501E0,5.1093403E1,-4.0305466E1,3.1518795E0,8.284635E1,-2.2302933E1,-5.888587E1,3.7099304E1,-2.5895683E1,1.7270564E2,6.3098232E1,-3.9828102E1,-3.5030231E0,-3.0459095E1,-6.703839E1,-2.091201E-1,1.543166E0,-1.8397452E0,-2.573375E-1,3.0937805E0,7.422943E0,2.436946E0,7.321318E-1,-2.1257944E0,-9.7877425E-1,5.8765197E-1,-5.8869517E-1,-2.3819196E-1,-1.3111694E0,-1.6126804E0,-2.338743E0],"categories":[],"categories_nodes":[],"categories_segments":[],"categories_sizes":[],"default_left":[0,0,0,0,0,0,0,0,0,0,0,0,0,0,0,0,0,0,0,0,0,0,0,0,0,0,0,0,0,0,0],"id":28,"left_children":[1,3,5,7,9,11,13,15,17,19,21,23,25,27,29,-1,-1,-1,-1,-1,-1,-1,-1,-1,-1,-1,-1,-1,-1,-1,-1],"loss_changes":[6.837334E5,2.3264756E5,5.7556875E4,6.20984E4,1.52359E5,2.9841965E4,1.7887562E4,1.8685395E4,2.0334096E4,5.7670188E4,5.2043344E4,8.191586E3,1.713506E4,5.9168555E3,5.3805938E3,0E0,0E0,0E0,0E0,0E0,0E0,0E0,0E0,0E0,0E0,0E0,0E0,0E0,0E0,0E0,0E0],"parents":[2147483647,0,0,1,1,2,2,3,3,4,4,5,5,6,6,7,7,8,8,9,9,10,10,11,11,12,12,13,13,14,14],"right_children":[2,4,6,8,10,12,14,16,18,20,22,24,26,28,30,-1,-1,-1,-1,-1,-1,-1,-1,-1,-1,-1,-1,-1,-1,-1,-1],"split_conditions":[5.0064427E-1,3.1962402E0,6.9598603E-1,4.307975E0,2.4177618E0,3.8473926E0,3.6302914E1,1.3032577E0,1.7302665E0,3.8928806E1,6.5884523E0,1.5735456E0,4.052959E0,4.0347633E0,8.043825E-1,-2.091201E-1,1.543166E0,-1.8397452E0,-2.573375E-1,3.0937805E0,7.422943E0,2.436946E0,7.321318E-1,-2.1257944E0,-9.7877425E-1,5.8765197E-1,-5.8869517E-1,-2.3819196E-1,-1.3111694E0,-1.6126804E0,-2.338743E0],"split_indices":[4,6,4,5,5,6,0,6,6,0,5,6,5,5,4,0,0,0,0,0,0,0,0,0,0,0,0,0,0,0,0],"split_type":[0,0,0,0,0,0,0,0,0,0,0,0,0,0,0,0,0,0,0,0,0,0,0,0,0,0,0,0,0,0,0],"sum_hessian":[3.27E2,1.52E2,1.75E2,6.1E1,9.1E1,9E1,8.5E1,2.8E1,3.3E1,1.5E1,7.6E1,4.6E1,4.4E1,2E1,6.5E1,7E0,2.1E1,1E1,2.3E1,9E0,6E0,5.1E1,2.5E1,7E0,3.9E1,1.8E1,2.6E1,8E0,1.2E1,3.2E1,3.3E1],"tree_param":{"num_deleted":"0","num_feature":"9","num_nodes":"31","size_leaf_vector":"1"}},{"base_weights":[1.1972244E0,4.86752E1,-3.520055E1,1.08540596E2,1.613428E1,-5.6960144E0,-5.663187E1,4.226655E1,1.5794148E2,-7.288378E0,5.7326664E1,4.036725E1,-1.88705E1,-2.1659439E0,-4.7898632E1,5.179222E-2,1.7657222E0,7.5630693E0,3.367246E0,-1.3613358E0,1.9059843E-1,2.020242E0,5.939689E-1,5.3925896E-1,1.6505183E0,-8.081744E-1,1.0566918E0,-1.2117658E0,-2.0487459E0],"categories":[],"categories_nodes":[],"categories_segments":[],"categories_sizes":[],"default_left":[0,0,0,0,0,0,0,0,0,0,0,0,0,0,0,0,0,0,0,0,0,0,0,0,0,0,0,0,0],"id":29,"left_children":[1,3,5,7,9,11,13,15,17,19,21,23,25,-1,27,-1,-1,-1,-1,-1,-1,-1,-1,-1,-1,-1,-1,-1,-1],"loss_changes":[6.013617E5,2.9240688E5,1.2424405E5,1.6684412E5,9.593699E4,5.1737758E4,1.2038219E4,1.6040078E4,1.0079444E5,3.354333E4,1.2195727E4,5.243131E3,2.9755281E4,0E0,8.874422E3,0E0,0E0,0E0,0E0,0E0,0E0,0E0,0E0,0E0,0E0,0E0,0E0,0E0,0E0],"parents":[2147483647,0,0,1,1,2,2,3,3,4,4,5,5,6,6,7,7,8,8,9,9,10,10,11,11,12,12,14,14],"right_children":[2,4,6,8,10,12,14,16,18,20,22,24,26,-1,28,-1,-1,-1,-1,-1,-1,-1,-1,-1,-1,-1,-1,-1,-1],"split_conditions":[4.4829068E-1,4.0094075E0,6.335931E-1,2.8414528E0,4.129417E0,3.0370944E0,2.3592675E0,1.3032577E0,3.8041595E-1,2.0482101E0,8.351551E0,3.4647965E0,5.428131E0,-2.1659439E0,8.3396727E-1,5.179222E-2,1.7657222E0,7.5630693E0,3.367246E0,-1.3613358E0,1.9059843E-1,2.020242E0,5.939689E-1,5.3925896E-1,1.6505183E0,-8.081744E-1,1.0566918E0,-1.2117658E0,-2.0487459E0],"split_indices":[4,5,4,6,6,5,6,6,8,6,5,6,6,0,4,0,0,0,0,0,0,0,0,0,0,0,0,0,0],"split_type":[0,0,0,0,0,0,0,0,0,0,0,0,0,0,0,0,0,0,0,0,0,0,0,0,0,0,0,0,0],"sum_hessian":[3.46E2,1.5E2,1.96E2,5.2E1,9.8E1,8.3E1,1.13E2,2.3E1,2.9E1,6.3E1,3.5E1,1.8E1,6.5E1,3.8E1,7.5E1,7E0,1.6E1,8E0,2.1E1,1.6E1,4.7E1,2.7E1,8E0,8E0,1E1,5.7E1,8E0,5.7E1,1.8E1],"tree_param":{"num_deleted":"0","num_feature":"9","num_nodes":"29","size_leaf_vector":"1"}},{"base_weights":[1.76679E0,5.4379448E1,-3.798819E1,1.0913627E2,1.9364826E1,-2.4031351E1,-6.643163E1,6.295063E1,1.9090135E2,-1.4687776E1,5.7098118E1,-3.9949852E1,4.175203E0,-5.1233307E1,-2.2747047E0,3.4905398E0,1.3814504E0,7.156588E0,2.8668008E0,1.5344877E0,-7.189355E-1,2.307739E0,6.3932294E-1,1.8683612E-1,-1.3767366E0,9.800092E-1,-2.7931428E-1,-7.6934206E-1,-1.7288141E0],"categories":[],"categories_nodes":[],"categories_segments":[],"categories_sizes":[],"default_left":[0,0,0,0,0,0,0,0,0,0,0,0,0,0,0,0,0,0,0,0,0,0,0,0,0,0,0,0,0],"id":30,"left_children":[1,3,5,7,9,11,13,15,17,19,21,23,25,27,-1,-1,-1,-1,-1,-1,-1,-1,-1,-1,-1,-1,-1,-1,-1],"loss_changes":[6.75566E5,2.6438853E5,7.144706E4,1.9190425E5,1.1134189E5,5.6292906E4,4.6784688E3,2.7133953E4,6.3520625E4,2.9320295E4,2.7450781E4,2.2234922E4,1.7978998E4,2.7751719E3,0E0,0E0,0E0,0E0,0E0,0E0,0E0,0E0,0E0,0E0,0E0,0E0,0E0,0E0,0E0],"parents":[2147483647,0,0,1,1,2,2,3,3,4,4,5,5,6,6,7,7,8,8,9,9,10,10,11,11,12,12,13,13],"right_children":[2,4,6,8,10,12,14,16,18,20,22,24,26,28,-1,-1,-1,-1,-1,-1,-1,-1,-1,-1,-1,-1,-1,-1,-1],"split_conditions":[4.8086372E-1,3.9841077E0,7.439501E-1,3.7058096E0,3.561604E0,3.8713846E0,4.4802597E1,1.9048956E-1,3.0785584E0,2.7044611E1,3.6746252E-1,2.3659518E0,2.9290798E0,3.6478984E-1,-2.2747047E0,3.4905398E0,1.3814504E0,7.156588E0,2.8668008E0,1.5344877E0,-7.189355E-1,2.307739E0,6.3932294E-1,1.8683612E-1,-1.3767366E0,9.800092E-1,-2.7931428E-1,-7.6934206E-1,-1.7288141E0],"split_indices":[4,5,4,6,6,6,0,4,5,0,4,5,5,8,0,0,0,0,0,0,0,0,0,0,0,0,0,0,0],"split_type":[0,0,0,0,0,0,0,0,0,0,0,0,0,0,0,0,0,0,0,0,0,0,0,0,0,0,0,0,0],"sum_hessian":[3.21E2,1.38E2,1.83E2,5.3E1,8.5E1,1.24E2,5.9E1,3.5E1,1.8E1,4.5E1,4E1,7.9E1,4.5E1,2.5E1,3.4E1,7E0,2.8E1,1.1E1,7E0,5E0,4E1,2.5E1,1.5E1,9E0,7E1,1.4E1,3.1E1,6E0,1.9E1],"tree_param":{"num_deleted":"0","num_feature":"9","num_nodes":"29","size_leaf_vector":"1"}},{"base_weights":[6.293442E0,4.6000385E1,-3.6430794E1,1.5848108E2,3.5030632E1,-1.7495146E1,-6.1792183E1,2.1118894E0,5.864485E0,5.6354443E1,8.107594E0,2.5783632E1,-2.6823122E1,-4.3728073E1,-2.022615E0,2.0971067E0,1.0736723E0,1.3588897E0,-6.713427E-3,1.3386859E0,-2.9613338E-2,9.561613E-1,-9.9444294E-1,-9.145048E-1,-1.8623053E0],"categories":[],"categories_nodes":[],"categories_segments":[],"categories_sizes":[],"default_left":[0,0,0,0,0,0,0,0,0,0,0,0,0,0,0,0,0,0,0,0,0,0,0,0,0],"id":31,"left_children":[1,3,5,7,9,11,13,-1,-1,15,17,19,21,23,-1,-1,-1,-1,-1,-1,-1,-1,-1,-1,-1],"loss_changes":[5.6320044E5,2.0667466E5,7.575567E4,3.5125406E4,9.025055E4,3.8236023E4,3.9643125E3,0E0,0E0,2.2017688E4,2.200875E4,8.618269E3,2.964241E4,2.724168E3,0E0,0E0,0E0,0E0,0E0,0E0,0E0,0E0,0E0,0E0,0E0],"parents":[2147483647,0,0,1,1,2,2,3,3,4,4,5,5,6,6,9,9,10,10,11,11,12,12,13,13],"right_children":[2,4,6,8,10,12,14,-1,-1,16,18,20,22,24,-1,-1,-1,-1,-1,-1,-1,-1,-1,-1,-1],"split_conditions":[5.0064427E-1,1.7229319E0,7.439501E-1,2.8811008E-1,6.123005E0,2.0358703E0,3.6302914E1,2.1118894E0,5.864485E0,3.1085688E-1,3.3852333E1,6.595628E-1,1.9179943E1,8.488183E-1,-2.022615E0,2.0971067E0,1.0736723E0,1.3588897E0,-6.713427E-3,1.3386859E0,-2.9613338E-2,9.561613E-1,-9.9444294E-1,-9.145048E-1,-1.8623053E0],"split_indices":[4,5,4,2,5,5,0,0,0,4,0,4,0,4,0,0,0,0,0,0,0,0,0,0,0],"split_type":[0,0,0,0,0,0,0,0,0,0,0,0,0,0,0,0,0,0,0,0,0,0,0,0,0],"sum_hessian":[3.3E2,1.71E2,1.59E2,1.4E1,1.57E2,9.2E1,6.7E1,5E0,9E0,8.7E1,7E1,1.6E1,7.6E1,1.8E1,4.9E1,5.1E1,3.6E1,1.2E1,5.8E1,9E0,7E0,7E0,6.9E1,1.2E1,6E0],"tree_param":{"num_deleted":"0","num_feature":"9","num_nodes":"25","size_leaf_vector":"1"}},{"base_weights":[-4.2514753E0,2.9491682E1,-4.281855E1,-2.350057E1,4.845E1,2.1060589E1,-4.7021492E1,7.1531355E-1,-3.4213737E1,3.206237E1,8.631436E1,-1.9044597E-1,1.3488283E0,-6.508127E1,-3.7457687E1,-1.2676855E0,-1.2753856E-1,1.2605293E0,-1.5429129E-1,4.449099E0,1.6972504E0,-9.665263E-1,-2.1321282E0,-5.657309E-1,-1.516943E0],"categories":[],"categories_nodes":[],"categories_segments":[],"categories_sizes":[],"default_left":[0,0,0,0,0,0,0,0,0,0,0,0,0,0,0,0,0,0,0,0,0,0,0,0,0],"id":32,"left_children":[1,3,5,7,9,11,13,-1,15,17,19,-1,-1,21,23,-1,-1,-1,-1,-1,-1,-1,-1,-1,-1],"loss_changes":[4.6585372E5,1.9302589E5,4.582678E4,2.6683496E4,8.4722875E4,7.491685E3,2.467825E4,0E0,9.940695E3,3.725547E4,6.903516E4,0E0,0E0,8.141922E3,2.464389E4,0E0,0E0,0E0,0E0,0E0,0E0,0E0,0E0,0E0,0E0],"parents":[2147483647,0,0,1,1,2,2,3,3,4,4,5,5,6,6,8,8,9,9,10,10,13,13,14,14],"right_children":[2,4,6,8,10,12,14,-1,16,18,20,-1,-1,22,24,-1,-1,-1,-1,-1,-1,-1,-1,-1,-1],"split_conditions":[5.5693704E-1,2.2477365E0,3.552621E-1,2.008215E1,5.0605707E0,7.908869E3,2.4476466E0,7.1531355E-1,3.3560074E1,4.7007835E-1,3.9705914E-1,-1.9044597E-1,1.3488283E0,2.5306366E1,7.056258E-1,-1.2676855E0,-1.2753856E-1,1.2605293E0,-1.5429129E-1,4.449099E0,1.6972504E0,-9.665263E-1,-2.1321282E0,-5.657309E-1,-1.516943E0],"split_indices":[4,6,8,0,6,3,6,0,7,4,8,0,0,0,4,0,0,0,0,0,0,0,0,0,0],"split_type":[0,0,0,0,0,0,0,0,0,0,0,0,0,0,0,0,0,0,0,0,0,0,0,0,0],"sum_hessian":[3.56E2,1.9E2,1.66E2,5E1,1.4E2,1E1,1.56E2,9E0,4.1E1,9.9E1,4.1E1,5E0,5E0,5.2E1,1.04E2,3.2E1,9E0,7.8E1,2.1E1,1.2E1,2.9E1,9E0,4.3E1,4.4E1,6E1],"tree_param":{"num_deleted":"0","num_feature":"9","num_nodes":"25","size_leaf_vector":"1"}},{"base_weights":[-1.6399714E0,4.1254803E1,-3.1957998E1,3.3271492E0,8.225408E1,-7.4021816E0,-4.7956707E1,-2.5932127E1,2.910704E1,1.1129751E2,5.8167095E1,-3.3038822E1,1.1716777E1,-6.197507E1,-3.616175E1,-1.4831575E0,-2.5355676E-1,1.6496054E0,1.8981978E-1,2.2368412E0,4.596094E0,1.1930757E0,2.2401226E0,-1.4793867E0,2.3944039E-2,1.534226E0,5.4453798E-2,-1.1539873E0,-1.9997548E0,-7.510859E-1,-1.5128142E0],"categories":[],"categories_nodes":[],"categories_segments":[],"categories_sizes":[],"default_left":[0,0,0,0,0,0,0,0,0,0,0,0,0,0,0,0,0,0,0,0,0,0,0,0,0,0,0,0,0,0,0],"id":33,"left_children":[1,3,5,7,9,11,13,15,17,19,21,23,25,27,29,-1,-1,-1,-1,-1,-1,-1,-1,-1,-1,-1,-1,-1,-1,-1,-1],"loss_changes":[4.7729584E5,2.3608642E5,8.4109625E4,6.1098914E4,4.4593E4,4.253987E4,1.9252906E4,1.5195709E4,2.5001457E4,3.7837125E4,9.781828E3,2.0414441E4,1.942482E4,3.82075E3,1.0322594E4,0E0,0E0,0E0,0E0,0E0,0E0,0E0,0E0,0E0,0E0,0E0,0E0,0E0,0E0,0E0,0E0],"parents":[2147483647,0,0,1,1,2,2,3,3,4,4,5,5,6,6,7,7,8,8,9,9,10,10,11,11,12,12,13,13,14,14],"right_children":[2,4,6,8,10,12,14,16,18,20,22,24,26,28,30,-1,-1,-1,-1,-1,-1,-1,-1,-1,-1,-1,-1,-1,-1,-1,-1],"split_conditions":[4.3446726E-1,3.7281098E0,6.3619673E-1,2.2477365E0,3.945735E-1,2.8110313E0,3.0680556E0,1.5575705E0,2.8229868E-1,3.2049498E-1,3.055115E-1,3.8644566E1,3.7318137E-1,3.6328828E-1,7.818333E-1,-1.4831575E0,-2.5355676E-1,1.6496054E0,1.8981978E-1,2.2368412E0,4.596094E0,1.1930757E0,2.2401226E0,-1.4793867E0,2.3944039E-2,1.534226E0,5.4453798E-2,-1.1539873E0,-1.9997548E0,-7.510859E-1,-1.5128142E0],"split_indices":[4,6,4,6,8,6,6,6,4,2,2,7,8,8,4,0,0,0,0,0,0,0,0,0,0,0,0,0,0,0,0],"split_type":[0,0,0,0,0,0,0,0,0,0,0,0,0,0,0,0,0,0,0,0,0,0,0,0,0,0,0,0,0,0,0],"sum_hessian":[3.65E2,1.51E2,2.14E2,7.9E1,7.2E1,8.5E1,1.29E2,3.7E1,4.2E1,3.1E1,4.1E1,3.6E1,4.9E1,5.7E1,7.2E1,1.5E1,2.2E1,1.9E1,2.3E1,1.8E1,1.3E1,2.1E1,2E1,2.4E1,1.2E1,9E0,4E1,1.1E1,4.6E1,4.2E1,3E1],"tree_param":{"num_deleted":"0","num_feature":"9","num_nodes":"31","size_leaf_vector":"1"}},{"base_weights":[-1.2174294E0,2.9049213E1,-4.185258E1,6.383211E1,2.1215768E0,-5.7683997E0,-4.7470936E1,9.197378E1,4.6698303E1,3.383988E1,-6.485865E0,-1.162935E0,7.813933E0,-3.7985245E1,-6.0180717E1,4.463178E0,1.9367042E0,8.185923E-1,1.7878186E0,1.6623224E0,1.5809333E-1,1.1895949E-1,-1.0978483E0,7.04109E-1,-2.6453775E-1,-5.5945873E-1,-1.3225576E0,-1.5501889E0,-2.059786E0],"categories":[],"categories_nodes":[],"categories_segments":[],"categories_sizes":[],"default_left":[0,0,0,0,0,0,0,0,0,0,0,0,0,0,0,0,0,0,0,0,0,0,0,0,0,0,0,0,0],"id":34,"left_children":[1,3,5,7,9,11,13,15,17,19,21,-1,23,25,27,-1,-1,-1,-1,-1,-1,-1,-1,-1,-1,-1,-1,-1,-1],"loss_changes":[4.0338984E5,1.759487E5,2.8108375E4,3.5241844E4,2.9432193E4,9.266492E3,1.2300906E4,3.7111125E4,1.1640453E4,1.3881877E4,2.689285E4,0E0,4.113023E3,7.6698984E3,5.775E1,0E0,0E0,0E0,0E0,0E0,0E0,0E0,0E0,0E0,0E0,0E0,0E0,0E0,0E0],"parents":[2147483647,0,0,1,1,2,2,3,3,4,4,5,5,6,6,7,7,8,8,9,9,10,10,12,12,13,13,14,14],"right_children":[2,4,6,8,10,12,14,16,18,20,22,-1,24,26,28,-1,-1,-1,-1,-1,-1,-1,-1,-1,-1,-1,-1,-1,-1],"split_conditions":[5.886784E-1,4.8042555E0,2.3515741E1,2.4177618E0,3.1727518E1,2.8332664E1,7.6175016E-1,2.6492837E-1,2.5617397E-1,4.1750094E-1,8.516987E0,-1.162935E0,1.5128433E1,3.3545203E0,3.945735E-1,4.463178E0,1.9367042E0,8.185923E-1,1.7878186E0,1.6623224E0,1.5809333E-1,1.1895949E-1,-1.0978483E0,7.04109E-1,-2.6453775E-1,-5.5945873E-1,-1.3225576E0,-1.5501889E0,-2.059786E0],"split_indices":[4,5,0,5,0,7,4,4,2,8,5,0,0,5,8,0,0,0,0,0,0,0,0,0,0,0,0,0,0],"split_type":[0,0,0,0,0,0,0,0,0,0,0,0,0,0,0,0,0,0,0,0,0,0,0,0,0,0,0,0,0],"sum_hessian":[3.26E2,1.87E2,1.39E2,8.1E1,1.06E2,1.9E1,1.2E2,2.9E1,5.2E1,2.2E1,8.4E1,5E0,1.4E1,7.1E1,4.9E1,8E0,2.1E1,2.2E1,3E1,1.2E1,1E1,6.3E1,2.1E1,7E0,7E0,1.8E1,5.3E1,2.8E1,2.1E1],"tree_param":{"num_deleted":"0","num_feature":"9","num_nodes":"29","size_leaf_vector":"1"}},{"base_weights":[1.2637284E0,1.061402E2,-6.335098E0,3.6032448E1,5.389634E0,-4.4685E1,5.3874073E0,1.5843805E0,3.1345287E-1,-1.3447892E1,-5.933193E1,-2.1566788E1,1.8119806E1,-1.393256E0,2.1733053E-1,-1.3841407E0,-2.085105E0,-1.1706822E-2,-9.4495904E-1,1.5971813E-1,1.6910112E0],"categories":[],"categories_nodes":[],"categories_segments":[],"categories_sizes":[],"default_left":[0,0,0,0,0,0,0,0,0,0,0,0,0,0,0,0,0,0,0,0,0],"id":35,"left_children":[1,3,5,7,-1,9,11,-1,-1,13,15,17,19,-1,-1,-1,-1,-1,-1,-1,-1],"loss_changes":[2.477242E5,1.017568E5,1.3061266E5,4.5992266E3,0E0,3.031325E4,7.692247E4,0E0,0E0,1.6039379E4,2.9654219E3,1.5130602E4,7.408908E4,0E0,0E0,0E0,0E0,0E0,0E0,0E0,0E0],"parents":[2147483647,0,0,1,1,2,2,3,3,5,5,6,6,9,9,10,10,11,11,12,12],"right_children":[2,4,6,8,-1,10,12,-1,-1,14,16,18,20,-1,-1,-1,-1,-1,-1,-1,-1],"split_conditions":[1.4381317E0,2.8169039E1,2.210136E0,7.6302925E3,5.389634E0,4.497366E0,2.0167522E-1,1.5843805E0,3.1345287E-1,2.5685335E1,6.3947655E1,5.1585703E0,5.092987E0,-1.393256E0,2.1733053E-1,-1.3841407E0,-2.085105E0,-1.1706822E-2,-9.4495904E-1,1.5971813E-1,1.6910112E0],"split_indices":[5,7,6,3,0,5,2,0,0,7,0,5,6,0,0,0,0,0,0,0,0],"split_type":[0,0,0,0,0,0,0,0,0,0,0,0,0,0,0,0,0,0,0,0,0],"sum_hessian":[3.09E2,2E1,2.89E2,1.1E1,9E0,6.7E1,2.22E2,6E0,5E0,2.2E1,4.5E1,7.1E1,1.51E2,8E0,1.4E1,2.2E1,2.3E1,2.3E1,4.8E1,1.14E2,3.7E1],"tree_param":{"num_deleted":"0","num_feature":"9","num_nodes":"21","size_leaf_vector":"1"}},{"base_weights":[1.2864772E0,-2.4030584E1,3.7387737E1,1.1214106E1,-3.7999886E1,8.893819E1,2.1548626E1,4.0219517E1,-3.5998263E0,-6.1836308E1,-2.4959827E1,5.9810425E1,1.27644806E2,3.7699062E1,-5.793903E0,1.7719496E0,-2.1941765E-1,5.741641E-1,-6.8244505E-1,-2.1041925E0,-1.3063543E0,-3.4006408E-1,-1.2668853E0,1.682391E-1,2.5318437E0,1.9481753E0,5.385767E0,2.5879884E-1,2.0817256E0,-5.5548894E-1,5.2013385E-1],"categories":[],"categories_nodes":[],"categories_segments":[],"categories_sizes":[],"default_left":[0,0,0,0,0,0,0,0,0,0,0,0,0,0,0,0,0,0,0,0,0,0,0,0,0,0,0,0,0,0,0],"id":36,"left_children":[1,3,5,7,9,11,13,15,17,19,21,23,25,27,29,-1,-1,-1,-1,-1,-1,-1,-1,-1,-1,-1,-1,-1,-1,-1,-1],"loss_changes":[2.8605966E5,9.101766E4,1.03412625E5,2.2918414E4,3.9485047E4,2.6186766E4,4.4378125E4,1.6556736E4,1.6110063E4,3.9310781E3,1.9990855E4,2.4843945E4,2.737789E4,5.7446133E4,1.1504087E4,0E0,0E0,0E0,0E0,0E0,0E0,0E0,0E0,0E0,0E0,0E0,0E0,0E0,0E0,0E0,0E0],"parents":[2147483647,0,0,1,1,2,2,3,3,4,4,5,5,6,6,7,7,8,8,9,9,10,10,11,11,12,12,13,13,14,14],"right_children":[2,4,6,8,10,12,14,16,18,20,22,24,26,28,30,-1,-1,-1,-1,-1,-1,-1,-1,-1,-1,-1,-1,-1,-1,-1,-1],"split_conditions":[3.7907765E0,2.9554048E0,2.7030911E0,1.9613996E0,1.7681483E0,9.29954E2,6.8339767E0,2.658863E0,3.9172706E-1,1.5575705E0,7.4022713E0,2.5133703E1,3.3701652E-1,2.9297829E1,5.3124666E0,1.7719496E0,-2.1941765E-1,5.741641E-1,-6.8244505E-1,-2.1041925E0,-1.3063543E0,-3.4006408E-1,-1.2668853E0,1.682391E-1,2.5318437E0,1.9481753E0,5.385767E0,2.5879884E-1,2.0817256E0,-5.5548894E-1,5.2013385E-1],"split_indices":[6,5,5,5,6,1,5,6,8,6,5,7,2,7,6,0,0,0,0,0,0,0,0,0,0,0,0,0,0,0,0],"split_type":[0,0,0,0,0,0,0,0,0,0,0,0,0,0,0,0,0,0,0,0,0,0,0,0,0,0,0,0,0,0,0],"sum_hessian":[3.11E2,1.83E2,1.28E2,5.2E1,1.31E2,2.9E1,9.9E1,1.7E1,3.5E1,4.5E1,8.6E1,1.8E1,1.1E1,6.2E1,3.7E1,1.2E1,5E0,1.6E1,1.9E1,2.9E1,1.6E1,4.9E1,3.7E1,6E0,1.2E1,6E0,5E0,3.3E1,2.9E1,2.4E1,1.3E1],"tree_param":{"num_deleted":"0","num_feature":"9","num_nodes":"31","size_leaf_vector":"1"}},{"base_weights":[-1.3570497E0,4.1567387E1,-2.7390135E1,1.0384932E1,8.1473495E1,-4.437278E0,-4.345829E1,7.372679E1,-2.0421221E0,1.543114E2,6.0239304E1,4.015354E1,-1.729799E1,-7.1384177E0,-4.8390854E1,1.2079108E0,3.0143285E0,9.3466556E-1,-4.582806E-1,2.9329522E0,5.4220133E0,1.9838113E0,3.2838506E-1,5.0036854E-1,1.4059743E0,-9.518223E-1,7.5525045E-2,-8.3209777E-1,3.588935E-1,-1.1220353E0,-1.8788595E0],"categories":[],"categories_nodes":[],"categories_segments":[],"categories_sizes":[],"default_left":[0,0,0,0,0,0,0,0,0,0,0,0,0,0,0,0,0,0,0,0,0,0,0,0,0,0,0,0,0,0,0],"id":37,"left_children":[1,3,5,7,9,11,13,15,17,19,21,23,25,27,29,-1,-1,-1,-1,-1,-1,-1,-1,-1,-1,-1,-1,-1,-1,-1,-1],"loss_changes":[3.7883834E5,1.5843238E5,7.762561E4,5.761342E4,7.7314875E4,5.115968E4,2.1868625E4,6.6949727E3,2.7714494E4,2.568125E2,1.23355E4,2.3690469E3,1.980906E4,6.6272817E3,1.4711734E4,0E0,0E0,0E0,0E0,0E0,0E0,0E0,0E0,0E0,0E0,0E0,0E0,0E0,0E0,0E0,0E0],"parents":[2147483647,0,0,1,1,2,2,3,3,4,4,5,5,6,6,7,7,8,8,9,9,10,10,11,11,12,12,13,13,14,14],"right_children":[2,4,6,8,10,12,14,16,18,20,22,24,26,28,30,-1,-1,-1,-1,-1,-1,-1,-1,-1,-1,-1,-1,-1,-1,-1,-1],"split_conditions":[4.246306E-1,3.7058096E0,6.335931E-1,1.76181E0,2.5074265E0,3.3545203E0,2.0595919E1,1.9362134E0,3.835356E1,7.3606543E3,8.7388115E0,3.976397E1,3.6164973E0,2.8863867E1,7.993084E-1,1.2079108E0,3.0143285E0,9.3466556E-1,-4.582806E-1,2.9329522E0,5.4220133E0,1.9838113E0,3.2838506E-1,5.0036854E-1,1.4059743E0,-9.518223E-1,7.5525045E-2,-8.3209777E-1,3.588935E-1,-1.1220353E0,-1.8788595E0],"split_indices":[4,6,4,5,5,5,0,6,0,3,5,0,6,7,4,0,0,0,0,0,0,0,0,0,0,0,0,0,0,0,0],"split_type":[0,0,0,0,0,0,0,0,0,0,0,0,0,0,0,0,0,0,0,0,0,0,0,0,0,0,0,0,0,0,0],"sum_hessian":[3.37E2,1.27E2,2.1E2,7.2E1,5.5E1,8.7E1,1.23E2,1.1E1,6.1E1,1.1E1,4.4E1,1.9E1,6.8E1,1.5E1,1.08E2,6E0,5E0,1.7E1,4.4E1,5E0,6E0,3.9E1,5E0,5E0,1.4E1,3.9E1,2.9E1,7E0,8E0,6.3E1,4.5E1],"tree_param":{"num_deleted":"0","num_feature":"9","num_nodes":"31","size_leaf_vector":"1"}},{"base_weights":[-3.5157154E0,3.7254967E1,-3.103358E1,-9.175243E0,5.396878E1,-7.157502E0,-4.329372E1,-3.5836884E1,8.207856E0,4.0042233E1,8.280789E1,1.900117E1,-1.8944124E1,-2.3923073E1,-5.1386353E1,-6.5715265E-1,-1.522803E0,7.8973275E-1,-1.9075707E-1,1.4938012E0,3.3816984E-1,3.483893E0,1.962353E0,9.753069E-1,1.12914555E-1,-9.7451866E-1,1.176584E-1,-1.0765306E0,-7.176192E-2,-1.3249624E0,-1.8317628E0],"categories":[],"categories_nodes":[],"categories_segments":[],"categories_sizes":[],"default_left":[0,0,0,0,0,0,0,0,0,0,0,0,0,0,0,0,0,0,0,0,0,0,0,0,0,0,0,0,0,0,0],"id":38,"left_children":[1,3,5,7,9,11,13,15,17,19,21,23,25,27,29,-1,-1,-1,-1,-1,-1,-1,-1,-1,-1,-1,-1,-1,-1,-1,-1],"loss_changes":[3.5904925E5,1.0060297E5,5.559992E4,1.6515588E4,3.483775E4,2.0709234E4,1.852161E4,1.7980684E3,5.973245E3,1.7953703E4,9.792078E3,4.1999644E3,1.4369414E4,9.957781E3,3.4485312E3,0E0,0E0,0E0,0E0,0E0,0E0,0E0,0E0,0E0,0E0,0E0,0E0,0E0,0E0,0E0,0E0],"parents":[2147483647,0,0,1,1,2,2,3,3,4,4,5,5,6,6,7,7,8,8,9,9,10,10,11,11,12,12,13,13,14,14],"right_children":[2,4,6,8,10,12,14,16,18,20,22,24,26,28,30,-1,-1,-1,-1,-1,-1,-1,-1,-1,-1,-1,-1,-1,-1,-1,-1],"split_conditions":[4.786478E-1,2.4259076E0,6.335931E-1,2.8512333E1,5.0180225E0,3.5677193E1,3.7151197E-1,2.3285378E1,2.8884405E-1,4.135534E-1,2.0032865E-1,3.8823137E-1,4.186969E0,9.1946985E2,7.993084E-1,-6.5715265E-1,-1.522803E0,7.8973275E-1,-1.9075707E-1,1.4938012E0,3.3816984E-1,3.483893E0,1.962353E0,9.753069E-1,1.12914555E-1,-9.7451866E-1,1.176584E-1,-1.0765306E0,-7.176192E-2,-1.3249624E0,-1.8317628E0],"split_indices":[4,6,4,7,6,0,8,7,4,8,4,8,6,1,4,0,0,0,0,0,0,0,0,0,0,0,0,0,0,0,0],"split_type":[0,0,0,0,0,0,0,0,0,0,0,0,0,0,0,0,0,0,0,0,0,0,0,0,0,0,0,0,0,0,0],"sum_hessian":[3.18E2,1.28E2,1.9E2,3.4E1,9.4E1,6.5E1,1.25E2,1.3E1,2.1E1,6.5E1,2.9E1,2E1,4.5E1,3.8E1,8.7E1,8E0,5E0,9E0,1.2E1,4.8E1,1.7E1,8E0,2.1E1,1E1,1E1,2.8E1,1.7E1,2.4E1,1.4E1,5.3E1,3.4E1],"tree_param":{"num_deleted":"0","num_feature":"9","num_nodes":"31","size_leaf_vector":"1"}},{"base_weights":[1.6040972E0,3.8650158E1,-2.9455284E1,1.6951586E1,7.831103E1,-7.5739923E0,-4.8196354E1,-3.793814E1,2.6116398E1,3.5143238E-1,8.5294914E1,-3.2554047E1,1.3133251E1,-1.8762455E1,-5.1516434E1,-4.3780395E-1,-1.7758982E0,1.3828698E0,3.9204323E-1,3.1141553E0,1.6812241E0,-1.5808799E0,-5.83432E-1,-4.6317342E-1,5.6409407E-1,6.956006E-2,-1.101545E0,-1.3709055E0,-2.0268834E0],"categories":[],"categories_nodes":[],"categories_segments":[],"categories_sizes":[],"default_left":[0,0,0,0,0,0,0,0,0,0,0,0,0,0,0,0,0,0,0,0,0,0,0,0,0,0,0,0,0],"id":39,"left_children":[1,3,5,7,9,11,13,15,17,-1,19,21,23,25,27,-1,-1,-1,-1,-1,-1,-1,-1,-1,-1,-1,-1,-1,-1],"loss_changes":[3.6588756E5,1.23456266E5,7.057803E4,4.878083E4,2.2720125E4,4.2326445E4,8.120953E3,6.0831855E3,2.0774027E4,0E0,1.9090125E4,8.741969E3,7.58043E3,4.249274E3,4.66225E3,0E0,0E0,0E0,0E0,0E0,0E0,0E0,0E0,0E0,0E0,0E0,0E0,0E0,0E0],"parents":[2147483647,0,0,1,1,2,2,3,3,4,4,5,5,6,6,7,7,8,8,10,10,11,11,12,12,13,13,14,14],"right_children":[2,4,6,8,10,12,14,16,18,-1,20,22,24,26,28,-1,-1,-1,-1,-1,-1,-1,-1,-1,-1,-1,-1,-1,-1],"split_conditions":[4.5296872E-1,4.5061955E0,6.595628E-1,1.4335222E0,1.1944311E-1,3.5816925E0,3.6577588E-1,6.959664E1,3.9516664E-1,3.5143238E-1,4.171662E-1,2.0326576E0,1.06527455E-1,5.4019634E1,8.4131926E-1,-4.3780395E-1,-1.7758982E0,1.3828698E0,3.9204323E-1,3.1141553E0,1.6812241E0,-1.5808799E0,-5.83432E-1,-4.6317342E-1,5.6409407E-1,6.956006E-2,-1.101545E0,-1.3709055E0,-2.0268834E0],"split_indices":[4,6,4,6,2,6,8,0,8,0,8,6,2,0,4,0,0,0,0,0,0,0,0,0,0,0,0,0,0],"split_type":[0,0,0,0,0,0,0,0,0,0,0,0,0,0,0,0,0,0,0,0,0,0,0,0,0,0,0,0,0],"sum_hessian":[3.16E2,1.44E2,1.72E2,9.4E1,5E1,8E1,9.2E1,1.3E1,8.1E1,5E0,4.5E1,3.6E1,4.4E1,1E1,8.2E1,7E0,6E0,3.1E1,5E1,2.6E1,1.9E1,1.3E1,2.3E1,7E0,3.7E1,5E0,5E0,6.3E1,1.9E1],"tree_param":{"num_deleted":"0","num_feature":"9","num_nodes":"29","size_leaf_vector":"1"}},{"base_weights":[9.239766E0,7.071132E0,4.81246E0,-2.2836159E1,2.5560843E1,7.465363E0,-3.459274E1,4.982377E1,4.569898E0,-4.8594886E-1,1.0397633E0,-2.0198576E-1,-1.4723693E0,2.243973E0,7.629593E-1,-2.4400185E-1,1.1200643E0],"categories":[],"categories_nodes":[],"categories_segments":[],"categories_sizes":[],"default_left":[0,0,0,0,0,0,0,0,0,0,0,0,0,0,0,0,0],"id":40,"left_children":[1,-1,3,5,7,9,11,13,15,-1,-1,-1,-1,-1,-1,-1,-1],"loss_changes":[3.1368856E5,0E0,1.7784594E5,4.7638742E4,8.9918164E4,2.5014434E4,3.841314E4,4.805053E4,4.026211E4,0E0,0E0,0E0,0E0,0E0,0E0,0E0,0E0],"parents":[2147483647,0,0,2,2,3,3,4,4,5,5,6,6,7,7,8,8],"right_children":[2,-1,4,6,8,10,12,14,16,-1,-1,-1,-1,-1,-1,-1,-1],"split_conditions":[1.109748E0,7.071132E0,3.4647965E0,3.5897741E0,4.743384E0,2.305892E0,4.3170757E1,4.012314E-1,5.092987E0,-4.8594886E-1,1.0397633E0,-2.0198576E-1,-1.4723693E0,2.243973E0,7.629593E-1,-2.4400185E-1,1.1200643E0],"split_indices":[5,0,6,5,5,6,0,8,6,0,0,0,0,0,0,0,0],"split_type":[0,0,0,0,0,0,0,0,0,0,0,0,0,0,0,0,0],"sum_hessian":[3.13E2,5E0,3.08E2,1.32E2,1.76E2,3.7E1,9.5E1,8.1E1,9.5E1,2E1,1.7E1,3.3E1,6.2E1,3.9E1,4.2E1,6.9E1,2.6E1],"tree_param":{"num_deleted":"0","num_feature":"9","num_nodes":"17","size_leaf_vector":"1"}},{"base_weights":[2.3076763E0,4.7185463E1,-2.8834705E1,1.542193E2,3.1593925E1,-3.6880438E0,-4.3935028E1,7.2134504E0,1.4613475E0,-3.8305597E0,5.0645325E1,-2.1017588E1,2.3780779E1,-1.14835825E1,-4.825477E1,1.1233593E0,-4.8257908E-1,1.87686E0,2.1781729E-1,-9.375934E-3,-9.885122E-1,1.3425417E0,7.826165E-2,1.9324107E-1,-6.6476125E-1,-1.1923805E0,-1.870535E0],"categories":[],"categories_nodes":[],"categories_segments":[],"categories_sizes":[],"default_left":[0,0,0,0,0,0,0,0,0,0,0,0,0,0,0,0,0,0,0,0,0,0,0,0,0,0,0],"id":41,"left_children":[1,3,5,7,9,11,13,-1,-1,15,17,19,21,23,25,-1,-1,-1,-1,-1,-1,-1,-1,-1,-1,-1,-1],"loss_changes":[4.094603E5,1.953844E5,6.5529516E4,1.2475194E5,7.1732375E4,3.191725E4,1.4584891E4,0E0,0E0,1.9824533E4,3.5218203E4,1.0119227E4,1.1426551E4,2.8218052E3,8.915328E3,0E0,0E0,0E0,0E0,0E0,0E0,0E0,0E0,0E0,0E0,0E0,0E0],"parents":[2147483647,0,0,1,1,2,2,3,3,4,4,5,5,6,6,9,9,10,10,11,11,12,12,13,13,14,14],"right_children":[2,4,6,8,10,12,14,-1,-1,16,18,20,22,24,26,-1,-1,-1,-1,-1,-1,-1,-1,-1,-1,-1,-1],"split_conditions":[4.5296872E-1,1.990211E0,6.242902E-1,3.9024562E-1,3.0296826E0,4.3890457E0,2.1032995E1,7.2134504E0,1.4613475E0,3.0370944E0,8.093894E0,3.3852333E1,3.540841E0,6.9079316E-1,8.106706E-1,1.1233593E0,-4.8257908E-1,1.87686E0,2.1781729E-1,-9.375934E-3,-9.885122E-1,1.3425417E0,7.826165E-2,1.9324107E-1,-6.6476125E-1,-1.1923805E0,-1.870535E0],"split_indices":[4,5,4,8,6,6,0,0,0,5,5,0,5,4,4,0,0,0,0,0,0,0,0,0,0,0,0],"split_type":[0,0,0,0,0,0,0,0,0,0,0,0,0,0,0,0,0,0,0,0,0,0,0,0,0,0,0],"sum_hessian":[2.91E2,1.19E2,1.72E2,1.4E1,1.05E2,6.5E1,1.07E2,7E0,7E0,3.7E1,6.8E1,4E1,2.5E1,1.3E1,9.4E1,8E0,2.9E1,5.3E1,1.5E1,1.5E1,2.5E1,1.2E1,1.3E1,5E0,8E0,6.1E1,3.3E1],"tree_param":{"num_deleted":"0","num_feature":"9","num_nodes":"27","size_leaf_vector":"1"}},{"base_weights":[1.1256686E0,4.777504E0,-2.0300207E0,-3.714379E1,7.9897346E0,8.380799E-1,-4.5202198E1,2.471078E1,-1.0912161E1,-5.43409E-1,-1.5479028E0,-1.1280758E-1,1.0747422E0,1.9579605E0,-4.5363733E-1],"categories":[],"categories_nodes":[],"categories_segments":[],"categories_sizes":[],"default_left":[0,0,0,0,0,0,0,0,0,0,0,0,0,0,0],"id":42,"left_children":[1,-1,3,5,7,-1,9,11,13,-1,-1,-1,-1,-1,-1],"loss_changes":[1.5301633E5,0E0,1.06198305E5,3.64004E4,7.454375E4,0E0,9.457859E3,3.9688273E4,3.6577156E4,0E0,0E0,0E0,0E0,0E0,0E0],"parents":[2147483647,0,0,2,2,3,3,4,4,6,6,7,7,8,8],"right_children":[2,-1,4,6,8,-1,10,12,14,-1,-1,-1,-1,-1,-1],"split_conditions":[1.1543447E0,4.777504E0,2.0659993E0,1.9613996E0,5.4855857E0,8.380799E-1,3.3852333E1,2.1437587E-1,2.0367716E1,-5.43409E-1,-1.5479028E0,-1.1280758E-1,1.0747422E0,1.9579605E0,-4.5363733E-1],"split_indices":[5,0,6,5,5,0,0,2,0,0,0,0,0,0,0],"split_type":[0,0,0,0,0,0,0,0,0,0,0,0,0,0,0],"sum_hessian":[3.05E2,5E0,3E2,6.6E1,2.34E2,7E0,5.9E1,1.24E2,1.1E2,1.2E1,4.7E1,3.5E1,8.9E1,5E0,1.05E2],"tree_param":{"num_deleted":"0","num_feature":"9","num_nodes":"15","size_leaf_vector":"1"}},{"base_weights":[2.9457238E0,-2.5802235E1,1.3363409E1,6.41852E0,-3.4964767E1,3.2006554E1,-5.2333326E0,-8.4965926E-1,2.0849552E1,-4.4529503E1,-1.597809E1,6.7564415E1,2.0057287E1,-2.876511E1,6.447588E0,1.2935096E0,-2.2728075E-1,-1.6462021E0,-1.034543E0,-1.066794E0,-1.5563935E-1,3.8433037E0,1.4649559E0,-8.1281096E-2,1.0951099E0,6.0306823E-1,-1.1033617E0,-3.3271402E-1,9.050412E-1],"categories":[],"categories_nodes":[],"categories_segments":[],"categories_sizes":[],"default_left":[0,0,0,0,0,0,0,0,0,0,0,0,0,0,0,0,0,0,0,0,0,0,0,0,0,0,0,0,0],"id":43,"left_children":[1,3,5,7,9,11,13,-1,15,17,19,21,23,25,27,-1,-1,-1,-1,-1,-1,-1,-1,-1,-1,-1,-1,-1,-1],"loss_changes":[9.228724E4,2.4433055E4,7.852236E4,1.0115909E4,1.0910453E4,4.665658E4,3.1521193E4,0E0,9.188518E3,2.4706875E3,4.6747534E3,2.549929E4,3.230014E4,1.5620467E4,3.2367584E4,0E0,0E0,0E0,0E0,0E0,0E0,0E0,0E0,0E0,0E0,0E0,0E0,0E0,0E0],"parents":[2147483647,0,0,1,1,2,2,3,3,4,4,5,5,6,6,8,8,9,9,10,10,11,11,12,12,13,13,14,14],"right_children":[2,4,6,8,10,12,14,-1,16,18,20,22,24,26,28,-1,-1,-1,-1,-1,-1,-1,-1,-1,-1,-1,-1,-1,-1],"split_conditions":[2.4926775E0,2.3515741E1,4.004976E-1,2.5685335E1,8.4592E3,3.0950232E1,2.1820924E-1,-8.4965926E-1,1.958699E0,1.8396364E0,2.7370129E1,3.5458073E-1,2.3174897E-1,3.521027E1,3.2287422E1,1.2935096E0,-2.2728075E-1,-1.6462021E0,-1.034543E0,-1.066794E0,-1.5563935E-1,3.8433037E0,1.4649559E0,-8.1281096E-2,1.0951099E0,6.0306823E-1,-1.1033617E0,-3.3271402E-1,9.050412E-1],"split_indices":[6,0,8,7,3,0,2,0,6,6,7,8,2,0,7,0,0,0,0,0,0,0,0,0,0,0,0,0,0],"split_type":[0,0,0,0,0,0,0,0,0,0,0,0,0,0,0,0,0,0,0,0,0,0,0,0,0,0,0,0,0],"sum_hessian":[3.06E2,8.1E1,2.25E2,1.8E1,6.3E1,1.12E2,1.13E2,5E0,1.3E1,4.1E1,2.2E1,2.7E1,8.5E1,3.7E1,7.6E1,7E0,6E0,1.8E1,2.3E1,7E0,1.5E1,5E0,2.2E1,3.6E1,4.9E1,5E0,3.2E1,4.4E1,3.2E1],"tree_param":{"num_deleted":"0","num_feature":"9","num_nodes":"29","size_leaf_vector":"1"}},{"base_weights":[1.5294718E0,2.7732857E1,-3.355444E1,-3.774682E0,4.7497246E1,-4.5011887E1,-1.8555162E1,-1.713126E1,1.1786507E1,7.356349E1,2.663461E1,-3.3432167E1,-1.5324502E0,-5.420872E0,-3.6935783E1,-3.4733444E-2,-1.1407039E0,9.8531854E-1,2.1647366E-2,1.7439233E0,3.967913E0,4.9111328E-1,1.634364E0,-1.2929026E0,-5.6894463E-1,6.0238887E-2,-5.948291E-1,-3.1104115E-1,-1.3014325E0],"categories":[],"categories_nodes":[],"categories_segments":[],"categories_sizes":[],"default_left":[0,0,0,0,0,0,0,0,0,0,0,0,0,0,0,0,0,0,0,0,0,0,0,0,0,0,0,0,0],"id":44,"left_children":[1,3,5,7,9,11,13,15,17,19,21,23,-1,25,27,-1,-1,-1,-1,-1,-1,-1,-1,-1,-1,-1,-1,-1,-1],"loss_changes":[2.7948362E5,1.08534266E5,2.150511E4,1.4335379E4,5.622739E4,3.4222969E3,1.3801504E4,1.230327E4,7.4319365E3,3.4887016E4,1.654109E4,3.097039E3,0E0,3.7858833E3,3.659373E3,0E0,0E0,0E0,0E0,0E0,0E0,0E0,0E0,0E0,0E0,0E0,0E0,0E0,0E0],"parents":[2147483647,0,0,1,1,2,2,3,3,4,4,5,5,6,6,7,7,8,8,9,9,10,10,11,11,13,13,14,14],"right_children":[2,4,6,8,10,12,14,16,18,20,22,24,-1,26,28,-1,-1,-1,-1,-1,-1,-1,-1,-1,-1,-1,-1,-1,-1],"split_conditions":[5.5693704E-1,3.1962402E0,3.7726967E0,2.2283409E0,2.9913083E-1,6.845753E-1,7.5576544E-1,3.7646532E-1,2.5529747E0,4.1848335E-1,4.0775567E-1,2.7791408E-1,-1.5324502E0,6.246084E1,2.5826935E1,-3.4733444E-2,-1.1407039E0,9.8531854E-1,2.1647366E-2,1.7439233E0,3.967913E0,4.9111328E-1,1.634364E0,-1.2929026E0,-5.6894463E-1,6.0238887E-2,-5.948291E-1,-3.1104115E-1,-1.3014325E0],"split_indices":[4,6,6,6,4,4,4,4,6,2,2,2,0,0,0,0,0,0,0,0,0,0,0,0,0,0,0,0,0],"split_type":[0,0,0,0,0,0,0,0,0,0,0,0,0,0,0,0,0,0,0,0,0,0,0,0,0,0,0,0,0],"sum_hessian":[3.02E2,1.73E2,1.29E2,6.7E1,1.06E2,7.2E1,5.7E1,3.6E1,3.1E1,4.6E1,6E1,2.7E1,4.5E1,3.4E1,2.3E1,2.1E1,1.5E1,1E1,2.1E1,3.8E1,8E0,4.5E1,1.5E1,1.5E1,1.2E1,2.3E1,1.1E1,5E0,1.8E1],"tree_param":{"num_deleted":"0","num_feature":"9","num_nodes":"29","size_leaf_vector":"1"}},{"base_weights":[-1.7296975E0,4.6053246E1,-2.0877398E1,1.5877933E2,3.017608E1,-3.2907177E1,7.734838E0,1.7192129E0,7.0136E0,-6.246072E0,5.9452827E1,-2.479288E1,-5.0782364E1,2.5703197E1,-3.100324E1,8.8843447E-1,-5.6492084E-1,2.1018968E0,4.59273E-1,-3.9518988E-1,-1.1243845E0,-6.0482997E-1,-1.6375806E0,1.6537105E0,4.2122778E-1,-1.1200413E0,-3.630256E-1],"categories":[],"categories_nodes":[],"categories_segments":[],"categories_sizes":[],"default_left":[0,0,0,0,0,0,0,0,0,0,0,0,0,0,0,0,0,0,0,0,0,0,0,0,0,0,0],"id":45,"left_children":[1,3,5,7,9,11,13,-1,-1,15,17,19,21,23,25,-1,-1,-1,-1,-1,-1,-1,-1,-1,-1,-1,-1],"loss_changes":[2.9099512E5,1.5807586E5,7.8387914E4,7.032225E4,8.6743984E4,2.1947344E4,4.8128895E4,0E0,0E0,1.7255344E4,2.000375E4,1.6016461E4,4.605922E3,1.5351479E4,2.1806797E3,0E0,0E0,0E0,0E0,0E0,0E0,0E0,0E0,0E0,0E0,0E0,0E0],"parents":[2147483647,0,0,1,1,2,2,3,3,4,4,5,5,6,6,9,9,10,10,11,11,12,12,13,13,14,14],"right_children":[2,4,6,8,10,12,14,-1,-1,16,18,20,22,24,26,-1,-1,-1,-1,-1,-1,-1,-1,-1,-1,-1,-1],"split_conditions":[3.485118E-1,1.8325834E0,4.541518E0,6.959664E1,3.2170012E0,7.40569E-1,6.790812E-1,1.7192129E0,7.0136E0,3.122676E0,7.326649E0,6.032137E0,2.2250713E1,3.540841E0,5.7303643E0,8.8843447E-1,-5.6492084E-1,2.1018968E0,4.59273E-1,-3.9518988E-1,-1.1243845E0,-6.0482997E-1,-1.6375806E0,1.6537105E0,4.2122778E-1,-1.1200413E0,-3.630256E-1],"split_indices":[4,5,6,0,6,4,4,0,0,5,5,5,0,5,6,0,0,0,0,0,0,0,0,0,0,0,0],"split_type":[0,0,0,0,0,0,0,0,0,0,0,0,0,0,0,0,0,0,0,0,0,0,0,0,0,0,0],"sum_hessian":[3.16E2,9E1,2.26E2,1E1,8E1,1.59E2,6.7E1,5E0,5E0,3.6E1,4.4E1,1.11E2,4.8E1,4.6E1,2.1E1,9E0,2.7E1,3.5E1,9E0,5.9E1,5.2E1,6E0,4.2E1,1.2E1,3.4E1,1.5E1,6E0],"tree_param":{"num_deleted":"0","num_feature":"9","num_nodes":"27","size_leaf_vector":"1"}},{"base_weights":[8.7016076E-1,4.3917492E1,-2.0065056E1,4.712604E0,3.1797691E1,9.042671E-2,-3.7788845E1,3.7780695E0,5.498779E1,-1.3300511E1,3.4719387E1,-1.1868361E1,-4.4779327E1,9.172171E-1,-4.0747195E-1,1.938736E0,1.0756629E0,-1.2556412E0,-1.064678E-1,1.5017341E0,6.284132E-1,-6.862202E-1,6.381118E-1,-1.1458681E0,-1.6886874E0],"categories":[],"categories_nodes":[],"categories_segments":[],"categories_sizes":[],"default_left":[0,0,0,0,0,0,0,0,0,0,0,0,0,0,0,0,0,0,0,0,0,0,0,0,0],"id":46,"left_children":[1,3,5,-1,7,9,11,13,15,17,19,21,23,-1,-1,-1,-1,-1,-1,-1,-1,-1,-1,-1,-1],"loss_changes":[2.9197072E5,1.4039161E5,7.788027E4,0E0,6.2820125E4,4.8224566E4,2.0486781E4,2.1348908E4,7.4536562E3,2.0734656E4,5.076828E3,9.9691045E3,4.745047E3,0E0,0E0,0E0,0E0,0E0,0E0,0E0,0E0,0E0,0E0,0E0,0E0],"parents":[2147483647,0,0,1,1,2,2,4,4,5,5,6,6,7,7,8,8,9,9,10,10,11,11,12,12],"right_children":[2,4,6,-1,8,10,12,14,16,18,20,22,24,-1,-1,-1,-1,-1,-1,-1,-1,-1,-1,-1,-1],"split_conditions":[3.7905762E-1,2.1333244E0,6.335931E-1,4.712604E0,3.2510896E0,4.660575E0,3.4239464E1,4.307975E0,9.248783E2,1.2725775E-1,4.3459215E0,5.108462E0,7.95616E-1,9.172171E-1,-4.0747195E-1,1.938736E0,1.0756629E0,-1.2556412E0,-1.064678E-1,1.5017341E0,6.284132E-1,-6.862202E-1,6.381118E-1,-1.1458681E0,-1.6886874E0],"split_indices":[4,5,4,0,6,6,0,5,1,2,5,6,4,0,0,0,0,0,0,0,0,0,0,0,0],"split_type":[0,0,0,0,0,0,0,0,0,0,0,0,0,0,0,0,0,0,0,0,0,0,0,0,0],"sum_hessian":[3.22E2,1.05E2,2.17E2,9E0,9.6E1,1.02E2,1.15E2,4.4E1,5.2E1,7.4E1,2.8E1,2.5E1,9E1,1.7E1,2.7E1,3.3E1,1.9E1,1.8E1,5.6E1,1.2E1,1.6E1,1.9E1,6E0,6E1,3E1],"tree_param":{"num_deleted":"0","num_feature":"9","num_nodes":"25","size_leaf_vector":"1"}},{"base_weights":[1.4159402E0,3.8422962E1,-2.369639E1,1.4063797E2,2.3497852E1,-9.433574E-1,-3.658824E1,1.7938237E0,1.7929788E2,5.622651E1,9.744783E0,2.1236805E1,-1.2938168E1,-1.8553562E1,-4.4666676E1,7.540878E0,2.3204553E0,2.5760694E0,1.11081E0,-1.6869654E-1,6.686949E-1,1.0285302E0,-2.1650425E-1,-6.386217E-1,2.6574984E-1,5.5643904E-1,-7.266615E-1,-1.4742827E0,-9.0223235E-1],"categories":[],"categories_nodes":[],"categories_segments":[],"categories_sizes":[],"default_left":[0,0,0,0,0,0,0,0,0,0,0,0,0,0,0,0,0,0,0,0,0,0,0,0,0,0,0,0,0],"id":47,"left_children":[1,3,5,7,9,11,13,-1,15,17,19,21,23,25,27,-1,-1,-1,-1,-1,-1,-1,-1,-1,-1,-1,-1,-1,-1],"loss_changes":[3.103784E5,2.0264569E5,5.8337523E4,4.240872E4,5.301564E4,1.96961E4,1.7673516E4,0E0,6.1370625E4,1.6738523E4,1.6512854E4,9.900184E3,8.923918E3,9.0720205E3,4.2037812E3,0E0,0E0,0E0,0E0,0E0,0E0,0E0,0E0,0E0,0E0,0E0,0E0,0E0,0E0],"parents":[2147483647,0,0,1,1,2,2,3,3,4,4,5,5,6,6,8,8,9,9,10,10,11,11,12,12,13,13,14,14],"right_children":[2,4,6,8,10,12,14,-1,16,18,20,22,24,26,28,-1,-1,-1,-1,-1,-1,-1,-1,-1,-1,-1,-1,-1,-1],"split_conditions":[4.4601402E-1,2.0709536E0,6.19152E-1,2.991918E-1,4.0094075E0,4.5303025E0,3.7838623E-1,1.7938237E0,2.6492837E-1,3.8756496E-1,2.1309608E-1,9.337059E2,3.6998222E1,3.5258263E-1,3.7843457E-1,7.540878E0,2.3204553E0,2.5760694E0,1.11081E0,-1.6869654E-1,6.686949E-1,1.0285302E0,-2.1650425E-1,-6.386217E-1,2.6574984E-1,5.5643904E-1,-7.266615E-1,-1.4742827E0,-9.0223235E-1],"split_indices":[4,5,4,2,5,5,8,0,4,8,2,1,7,8,2,0,0,0,0,0,0,0,0,0,0,0,0,0,0],"split_type":[0,0,0,0,0,0,0,0,0,0,0,0,0,0,0,0,0,0,0,0,0,0,0,0,0,0,0,0,0],"sum_hessian":[3.32E2,1.34E2,1.98E2,1.6E1,1.18E2,7.2E1,1.26E2,6E0,1E1,3.4E1,8.4E1,2.5E1,4.7E1,4E1,8.6E1,5E0,5E0,1.2E1,2.2E1,3.8E1,4.6E1,1.7E1,8E0,3.4E1,1.3E1,5E0,3.5E1,6.4E1,2.2E1],"tree_param":{"num_deleted":"0","num_feature":"9","num_nodes":"29","size_leaf_vector":"1"}},{"base_weights":[7.0971614E-1,2.9376328E1,-3.361439E1,7.0318306E1,6.9807863E0,-4.2905113E1,-1.900691E1,4.967743E1,1.3458922E2,-2.655255E1,2.4800365E1,-2.7148623E1,-4.7897057E1,-1.0841761E1,-1.3742416E0,5.2159923E-1,2.073603E0,1.1925702E0,5.48575E0,-1.5549623E0,-4.4309416E-1,2.2492605E-1,1.1436571E0,-1.3574117E0,-4.9205965E-1,-1.6629336E0,-1.2695521E0,9.549121E-2,-5.388179E-1],"categories":[],"categories_nodes":[],"categories_segments":[],"categories_sizes":[],"default_left":[0,0,0,0,0,0,0,0,0,0,0,0,0,0,0,0,0,0,0,0,0,0,0,0,0,0,0,0,0],"id":48,"left_children":[1,3,5,7,9,11,13,15,17,19,21,23,25,27,-1,-1,-1,-1,-1,-1,-1,-1,-1,-1,-1,-1,-1,-1,-1],"loss_changes":[3.069977E5,1.5538438E5,1.8455281E4,7.290859E4,6.698655E4,5.4632812E3,1.1976412E4,2.8304883E4,5.6816438E4,1.0850408E4,1.654025E4,3.7306797E3,3.431875E2,4.5501284E3,0E0,0E0,0E0,0E0,0E0,0E0,0E0,0E0,0E0,0E0,0E0,0E0,0E0,0E0,0E0],"parents":[2147483647,0,0,1,1,2,2,3,3,4,4,5,5,6,6,7,7,8,8,9,9,10,10,11,11,12,12,13,13],"right_children":[2,4,6,8,10,12,14,16,18,20,22,24,26,28,-1,-1,-1,-1,-1,-1,-1,-1,-1,-1,-1,-1,-1,-1,-1],"split_conditions":[5.4015434E-1,3.8325844E0,3.7726967E0,4.844879E0,2.674983E0,4.2740273E0,8.3800167E-1,2.0830758E0,7.4087915E3,1.5319494E0,4.186969E0,1.7136732E-1,1.9056567E0,6.449091E-1,-1.3742416E0,5.2159923E-1,2.073603E0,1.1925702E0,5.48575E0,-1.5549623E0,-4.4309416E-1,2.2492605E-1,1.1436571E0,-1.3574117E0,-4.9205965E-1,-1.6629336E0,-1.2695521E0,9.549121E-2,-5.388179E-1],"split_indices":[4,5,6,6,6,5,4,6,3,6,6,2,6,4,0,0,0,0,0,0,0,0,0,0,0,0,0,0,0],"split_type":[0,0,0,0,0,0,0,0,0,0,0,0,0,0,0,0,0,0,0,0,0,0,0,0,0,0,0,0,0],"sum_hessian":[3.1E2,1.69E2,1.41E2,5.9E1,1.1E2,8.5E1,5.6E1,4.6E1,1.3E1,3.8E1,7.2E1,2.2E1,6.3E1,4.4E1,1.2E1,1.8E1,2.8E1,5E0,8E0,1.1E1,2.7E1,3.2E1,4E1,7E0,1.5E1,2.3E1,4E1,1.5E1,2.9E1],"tree_param":{"num_deleted":"0","num_feature":"9","num_nodes":"29","size_leaf_vector":"1"}},{"base_weights":[1.0382569E0,3.1156076E1,-2.7402746E1,1.1582004E2,1.9659773E1,-1.1756198E1,-3.665768E1,9.0980655E-1,1.702874E2,3.5412144E1,-3.9035573E0,4.9469767E0,-2.674116E1,-1.15958296E-1,-3.8806934E1,3.0703032E0,6.6351733E0,2.926437E0,8.6989146E-1,7.5850236E-1,-3.9407116E-1,1.0255805E0,-4.4845603E-2,-2.9776734E-1,-1.0744091E0,-1.0213073E0,-1.629262E0],"categories":[],"categories_nodes":[],"categories_segments":[],"categories_sizes":[],"default_left":[0,0,0,0,0,0,0,0,0,0,0,0,0,0,0,0,0,0,0,0,0,0,0,0,0,0,0],"id":49,"left_children":[1,3,5,7,9,11,13,-1,15,17,19,21,23,-1,25,-1,-1,-1,-1,-1,-1,-1,-1,-1,-1,-1,-1],"loss_changes":[2.9808738E5,1.6221319E5,2.5489156E4,8.796541E4,5.5815297E4,1.7152664E4,7.7432188E3,0E0,1.8849188E4,3.304853E4,1.6768959E4,6.267077E3,5.1361953E3,0E0,5.9035312E3,0E0,0E0,0E0,0E0,0E0,0E0,0E0,0E0,0E0,0E0,0E0,0E0],"parents":[2147483647,0,0,1,